tree
version=v4
num_class=1
num_tree_per_iteration=1
label_index=0
max_feature_idx=18
objective=regression
feature_names=Column_0 Column_1 Column_2 Column_3 Column_4 Column_5 Column_6 Column_7 Column_8 Column_9 Column_10 Column_11 Column_12 Column_13 Column_14 Column_15 Column_16 Column_17 Column_18
feature_infos=[1.5:97.5] [0.64500000000000002:43.331000000000003] [0.084000000000000005:2.476] [0:6.5259999999999998] [-2.4769999999999999:3.077] [-57:78] [-16.013000000000002:16.013000000000002] [-60:70] [-44:82] [-5.944:4.5869999999999997] [0:0.88500000000000001] [-2.3839999999999999:2.722] [0.182:0.81799999999999995] [1:10] [0.214:1] [-1:0.86599999999999999] [-0.5:1] [0:161] [1:2]
tree_sizes=2458 2595 2589 2593 2592 2589 2508 2507 2581 2428 2505 2323 2429 2324 2506 2417 2319 2591 2505 2410 2438 2512 2431 2421 2517 2344 2452 2252 2521 2521 2599 2338 2519 2239 2597 2512 2610 2171 2518 2427 2260 2512 2264 2426 2268 2531 2257 2505 2530 2517 2279 2430 2440 2194 2254 2542 2193 2437 2536 2191 2435 2350 2523 2278 2271 2438 2268 2437 2003 2518 2272 2364 2443 2009 2364 2266 2365 2111 2368 2531 2360 2359 2369 2365 2118 2374 2195 2291 2119 2387 2281 2117 2204 2376 2119 2366 2187 2292 2201 2206 2370 2219 2105 2026 2102 1933 2216 2109 2309 2101 1926 2211 1945 2038 1935 2295 2110 2223 2036 2217 1764 1846 2037 1940 1938 2133 1951 2039 1874 2039 1851 2028 1937 2201 2039 2131 2136 1945 2127 1954 2137 2042 2205 2117 2024 2139 2136 2223 2233 2228 2238 2090 2018 1790 2217 2140 1788 2236 2043 1982 2291 2191 2224 1881 2216 2224 2107 1979 1864 2134 2115 1976 1862 2134 2192 2205 1881 2232 1886 2229 1984 1858 1853 1882 2132 2142 2185 2067 1861 2069 2046 1886 1967 1713 2141 2067 2027 1968 1890 1874 2145 1898 1890 2040 2058 2110 1890 2045 1893 2058 1973 1874 2060 1962 2144 2124 1882 1797 1965 2136 1970 1879 2057 1375 1116 1113 1117 1123 1112 1117 1382 1116 1812 1106 1124 1384 1119 1382 1709 1387 1124 1385 1371 1374 1448 1799 1359 1365 1120 1429 1624 1370 1617 1461 1614 1367 1190 1535 1544 1545 1180 1453 1394 1180 1543 1099 1459 1627 1550 1183 1633 1105 1102 1549 1630 1103 1178 1547 1371 1094 1189 1366 1452 1181 1096 1098 1183 1192 1372 1284 1183 1375 1279 1263 1369 1279 1373 1182 1188 1095 1281 1267 1099 1098 1280 1266 1271 1015 1268 1185 1103 1268 1267 1012 1024 1190 1103 1021 1012 1272 1025 1104 930 1012 927 1115 1024 1104 926 1119 1019 1023 924 1027 1036 1268 925 1030 1027 923 1029 1028 926 1020 1032 1031 920 929 1031 1036 1020 920 1029 920 933 920 1036 1032 918 935 916 940 918 1027 917 1039 1032 916 947 926 939 1042 1037 922 917 950 1038 1034 919 1047 920 1038 1031 925 953 919 1037 940 913 1033 920 855 1013 951 923 1016 1035 926 862 921 1017 861 828 943 1018 861 927 921 944 1015 940 929 1034 929 1017 1033 747 943 1014 927 1023 749 1028 1021 1025 1019 929 1031 747 941 1022 1021 1023 750 942 1025 767 929 1025 765 929 1025 767 923 942 1029 923 938 1029 760 751 1025 763 925 1022 767 1025 761 750 942 759 929 944 771 939 763 932 1021 761 749 944 771 942 761 929 944 762 928 1029 771 1025 763 930 1030 771 750 1023 763 751 944 773 935 764 753 1027 772 751 942 762 1036 928 769 940 762 755 1028 762 937 931 769 1030 927 771 944 758 1031 926 756 1016 754 937 750 1039 927 751 1016 755 930 753 945 749 1016 747 930 1029 1017 749 927 941 1033 1014 1028 749 749 927 1034 940 932 745 1014 1024 744 762 1027 1025 1015 939 745 762 1031 1025 749 1016 937 1017 763 924 1025 923 765 747 1009 1020 1033 1015 762 1032 1031 1017 748 928 746 1015 1016 757 1027 746 1022 747 1014 762 944 925 1023 764 745 938 934 924 1005 1029 925 748 1003 759 1029 1018 1033 747

Tree=0
num_leaves=29
num_cat=0
split_feature=0 0 0 0 0 0 0 3 0 9 14 1 9 1 0 11 16 9 0 1 0 3 1 9 9 4 14 0
split_gain=189561 48907.6 27007.4 12287.2 7038.55 6977.22 3579.26 3268.04 1826.85 1634.06 1444.81 1181.28 1104.1 1044.4 793.922 657.195 615.015 545.858 444.608 423.96 399.6 351.643 314.622 269.159 260.1 238.038 224.024 80.7528
threshold=16.208500000000004 33.583500000000008 8.3750000000000018 22.041500000000003 12.375000000000002 45.750000000000007 5.541500000000001 1.3305000000000002 37.791500000000006 0.28850000000000003 0.53050000000000008 3.3535000000000008 0.26750000000000007 7.2485000000000008 10.458500000000003 -0.95799999999999985 0.68300000000000016 1.0610000000000002 17.041500000000003 1.7030000000000001 7.3750000000000009 1.2095000000000002 4.7270000000000012 -0.12749999999999997 0.46700000000000003 -0.20049999999999998 0.49100000000000005 3.1250000000000004
decision_type=2 2 2 2 2 2 2 2 2 2 2 2 2 2 2 2 2 2 2 2 2 2 2 2 2 2 2 2
left_child=2 3 6 9 14 8 19 15 24 18 -9 20 23 -11 21 -5 -14 -16 -2 27 -8 -4 -13 -6 -3 -21 -10 -1
right_child=1 5 4 7 12 -7 11 10 26 13 -12 22 16 -15 17 -17 -18 -19 -20 25 -22 -23 -24 -25 -26 -27 -28 -29
leaf_value=14.510677886869832 14.62350118700747 14.835910273673795 14.582068085519055 14.783576943181616 14.613094488604579 15.100610276725552 14.549218585832028 14.777895124270092 14.932743605099779 14.694758104057469 14.863491908093099 14.579032126868361 14.643581401221986 14.735957896274275 14.604787636411473 14.744898082319656 14.672443065318129 14.64941027782625 14.672435488614855 14.525875797681328 14.569206196615291 14.598221753355379 14.619410278195232 14.63516785384121 14.886910273435376 14.543310694253714 14.978934081290255 14.524196605294785
leaf_weight=71 22 20 301 60 95 25 313 33 21 230 49 238 187 84 318 164 122 30 119 116 147 244 21 132 20 241 21 117
leaf_count=71 22 20 301 60 95 25 313 33 21 230 49 238 187 84 318 164 122 30 119 116 147 244 21 132 20 241 21 117
internal_value=14.6257 14.7542 14.5842 14.726 14.614 14.9544 14.5506 14.775 14.9098 14.6931 14.829 14.5652 14.6427 14.7058 14.5968 14.7553 14.655 14.6086 14.6648 14.5312 14.5556 14.5893 14.5823 14.6259 14.8614 14.5376 14.9558 14.5191
internal_weight=3561 868 2693 761 1429 107 1264 306 82 455 82 719 536 314 893 224 309 348 141 545 460 545 259 227 40 357 42 188
internal_count=3561 868 2693 761 1429 107 1264 306 82 455 82 719 536 314 893 224 309 348 141 545 460 545 259 227 40 357 42 188
is_linear=0
shrinkage=1


Tree=1
num_leaves=29
num_cat=0
split_feature=0 0 0 0 0 0 0 3 0 9 14 1 9 1 0 11 16 9 0 1 0 3 1 9 9 4 14 0
split_gain=185789 47934.3 26470 12042.7 6898.48 6838.37 3508.04 3203.01 1790.49 1601.54 1416.06 1157.78 1082.13 1023.62 778.123 644.117 602.776 534.995 435.76 415.524 391.648 344.645 308.361 263.851 254.924 233.301 219.566 79.1458
threshold=16.208500000000004 33.583500000000008 8.3750000000000018 22.041500000000003 12.375000000000002 45.750000000000007 5.541500000000001 1.3305000000000002 37.791500000000006 0.28850000000000003 0.53050000000000008 3.3535000000000008 0.26750000000000007 7.2485000000000008 10.458500000000003 -0.95799999999999985 0.68300000000000016 1.0610000000000002 17.041500000000003 1.7030000000000001 7.3750000000000009 1.2095000000000002 4.7270000000000012 -0.10999999999999999 0.46700000000000003 -0.20049999999999998 0.49100000000000005 3.1250000000000004
decision_type=2 2 2 2 2 2 2 2 2 2 2 2 2 2 2 2 2 2 2 2 2 2 2 2 2 2 2 2
left_child=2 3 6 9 14 8 19 15 24 18 -9 20 23 -11 21 -5 -14 -16 -2 27 -8 -4 -13 -6 -3 -21 -10 -1
right_child=1 5 4 7 12 -7 11 10 26 13 -12 22 16 -15 17 -17 -18 -19 -20 25 -22 -23 -24 -25 -26 -27 -28 -29
leaf_value=-0.11383917721224503 -0.0021441034295342186 0.20814089393615726 -0.043162873472486228 0.15633089701334635 -0.011998448727106807 0.47019390029907226 -0.075683877441448916 0.15070589862989656 0.30400590260823568 0.068400245238905366 0.23544671820134533 -0.046168471622366862 0.017735309090843813 0.1091880383768252 -0.020670518550857806 0.11803882513104416 0.046308355592801921 0.023505897502104443 0.046300854865743334 -0.098793242347651522 -0.055896143976117481 -0.027170742360539124 -0.0061941036723908924 0.0097420705622062089 0.25863090324401855 -0.081532694140905165 0.34973446437290739 -0.10045564146123381
leaf_weight=71 22 20 301 60 99 25 313 33 21 230 49 238 187 84 318 164 122 30 119 116 147 244 21 128 20 241 21 117
leaf_count=71 22 20 301 60 99 25 313 33 21 230 49 238 187 84 318 164 122 30 119 116 147 244 21 128 20 241 21 117
internal_value=-7.48196e-11 0.127228 -0.0410077 0.0993625 -0.0115217 0.32541 -0.0743428 0.147871 0.281268 0.0667395 0.201344 -0.0598386 0.0168382 0.0793116 -0.0285439 0.128296 0.0290166 -0.0168622 0.0387421 -0.0934776 -0.0693604 -0.0360031 -0.0429273 0.000260523 0.233386 -0.0871412 0.32687 -0.10551
internal_weight=3561 868 2693 761 1429 107 1264 306 82 455 82 719 536 314 893 224 309 348 141 545 460 545 259 227 40 357 42 188
internal_count=3561 868 2693 761 1429 107 1264 306 82 455 82 719 536 314 893 224 309 348 141 545 460 545 259 227 40 357 42 188
is_linear=0
shrinkage=0.01


Tree=2
num_leaves=29
num_cat=0
split_feature=0 0 0 0 0 0 0 3 0 9 14 1 9 1 0 11 16 9 0 1 0 3 1 9 9 4 14 0
split_gain=182092 46980.4 25943.2 11803 6761.2 6702.29 3438.23 3139.27 1754.86 1569.67 1387.88 1134.74 1060.59 1003.25 762.639 631.299 590.781 524.349 427.946 407.255 383.854 337.787 302.225 258.737 249.851 228.658 215.196 77.5708
threshold=16.208500000000004 33.583500000000008 8.3750000000000018 22.041500000000003 12.375000000000002 45.750000000000007 5.541500000000001 1.3305000000000002 37.791500000000006 0.28850000000000003 0.53050000000000008 3.3535000000000008 0.26750000000000007 7.2485000000000008 10.458500000000003 -0.95799999999999985 0.68300000000000016 1.0610000000000002 19.958500000000004 1.7030000000000001 7.3750000000000009 1.2095000000000002 4.7270000000000012 -0.12749999999999997 0.46700000000000003 -0.20049999999999998 0.49100000000000005 3.1250000000000004
decision_type=2 2 2 2 2 2 2 2 2 2 2 2 2 2 2 2 2 2 2 2 2 2 2 2 2 2 2 2
left_child=2 3 6 9 14 8 19 15 24 18 -9 20 23 -11 21 -5 -14 -16 -2 27 -8 -4 -13 -6 -3 -21 -10 -1
right_child=1 5 4 7 12 -7 11 10 26 13 -12 22 16 -15 17 -17 -18 -19 -20 25 -22 -23 -24 -25 -26 -27 -28 -29
leaf_value=-0.11270078571749405 0.025838694732676269 0.20605949449539185 -0.042731244328410127 0.15476759068171184 -0.012326750654923288 0.46549196166992191 -0.074927039371130946 0.14919884132616448 0.30096584320068359 0.067716241105743077 0.2330922497900165 -0.04570678746625155 0.017557955604186035 0.10809615895861673 -0.020463812150670297 0.11685843765008741 0.045845273713596528 0.023270837148030601 0.062604302639762563 -0.097805312008693301 -0.05533718237868783 -0.026899034932988588 -0.0061321629796709329 0.0093150647932832894 0.2560445909500122 -0.080717363917728685 0.34623713538760231 -0.099451087804941024
leaf_weight=71 93 20 301 60 95 25 313 33 21 230 49 238 187 84 318 164 122 30 48 116 147 244 21 132 20 241 21 117
leaf_count=71 93 20 301 60 95 25 313 33 21 230 49 238 187 84 318 164 122 30 48 116 147 244 21 132 20 241 21 117
internal_value=1.82697e-10 0.125956 -0.0405976 0.0983689 -0.0114065 0.322156 -0.0735993 0.146392 0.278455 0.0660721 0.19933 -0.0592402 0.0166698 0.0785185 -0.0282585 0.127013 0.0287264 -0.0166936 0.0383546 -0.0925428 -0.0686668 -0.0356431 -0.042498 0.000257917 0.231052 -0.0862698 0.323601 -0.104455
internal_weight=3561 868 2693 761 1429 107 1264 306 82 455 82 719 536 314 893 224 309 348 141 545 460 545 259 227 40 357 42 188
internal_count=3561 868 2693 761 1429 107 1264 306 82 455 82 719 536 314 893 224 309 348 141 545 460 545 259 227 40 357 42 188
is_linear=0
shrinkage=0.01


Tree=3
num_leaves=29
num_cat=0
split_feature=0 0 0 0 0 0 0 3 0 9 14 1 9 1 0 11 16 9 0 0 0 3 1 9 9 9 14 1
split_gain=178468 46045.5 25427 11568.1 6626.65 6568.91 3369.8 3076.8 1719.94 1538.43 1360.26 1112.16 1039.49 983.283 747.462 618.736 579.024 513.914 424.452 399.574 376.216 331.065 296.211 253.758 253.634 244.879 210.914 90.639
threshold=16.208500000000004 33.583500000000008 8.3750000000000018 22.041500000000003 12.375000000000002 45.750000000000007 5.541500000000001 1.3305000000000002 37.791500000000006 0.28850000000000003 0.53050000000000008 3.3535000000000008 0.26750000000000007 7.2485000000000008 10.458500000000003 -0.95799999999999985 0.68300000000000016 1.0610000000000002 17.041500000000003 3.9585000000000004 7.3750000000000009 1.2095000000000002 4.7270000000000012 0.036500000000000012 -0.10999999999999999 0.46700000000000003 0.49100000000000005 1.9115000000000002
decision_type=2 2 2 2 2 2 2 2 2 2 2 2 2 2 2 2 2 2 2 2 2 2 2 2 2 2 2 2
left_child=2 3 6 9 14 8 19 15 25 18 -9 20 24 -11 21 -5 -14 -16 -2 27 -8 -4 -13 -21 -6 -3 -10 -1
right_child=1 5 4 7 12 -7 11 10 26 13 -12 22 16 -15 17 -17 -18 -19 -20 23 -22 -23 -24 -25 -26 -27 -28 -29
leaf_value=-0.10671800834680693 -0.0023810489882122388 0.20399889373779295 -0.042303931538844826 0.15321991399923962 -0.011763941362650708 0.46083703956604005 -0.074177768203778013 0.14770684644805662 0.29795617421468096 0.067039080407308493 0.23076132049365922 -0.045249719940313772 0.017382376107940065 0.1070151986217215 -0.020259174761719675 0.11568985065717886 0.045386819898105057 0.023038130124409993 0.045431160797842408 -0.095527918782727483 -0.054783809963537725 -0.026630044034758552 -0.0060708403445425482 -0.07832783971797852 0.009551500426605344 0.25348414134979247 0.34277476356143038 -0.08927634832826821
leaf_weight=153 22 20 301 60 99 25 313 33 21 230 49 238 187 84 318 164 122 30 119 145 147 244 21 210 128 20 21 37
leaf_count=153 22 20 301 60 99 25 313 33 21 230 49 238 187 84 318 164 122 30 119 145 147 244 21 210 128 20 21 37
internal_value=2.19145e-10 0.124696 -0.0401916 0.0973852 -0.0112924 0.318934 -0.0728633 0.144928 0.275671 0.0654114 0.197337 -0.0586478 0.0165031 0.0777333 -0.0279759 0.125743 0.0284391 -0.0165266 0.0379711 -0.0916174 -0.0679801 -0.0352866 -0.0420731 -0.0853532 0.000255339 0.228742 0.320365 -0.103321
internal_weight=3561 868 2693 761 1429 107 1264 306 82 455 82 719 536 314 893 224 309 348 141 545 460 545 259 355 227 40 42 190
internal_count=3561 868 2693 761 1429 107 1264 306 82 455 82 719 536 314 893 224 309 348 141 545 460 545 259 355 227 40 42 190
is_linear=0
shrinkage=0.01


Tree=4
num_leaves=29
num_cat=0
split_feature=0 0 0 0 0 0 0 3 0 9 14 1 9 8 0 11 16 9 0 1 0 3 1 9 9 4 15 0
split_gain=174916 45129.2 24921 11337.9 6494.78 6438.19 3302.75 3015.57 1685.71 1507.82 1333.19 1090.02 1018.8 964.73 732.588 606.423 567.502 503.688 416.827 393.162 368.729 324.477 290.316 248.719 240.006 222.445 209.579 74.8729
threshold=16.208500000000004 33.583500000000008 8.3750000000000018 22.041500000000003 12.375000000000002 45.750000000000007 5.541500000000001 1.3305000000000002 37.791500000000006 0.28850000000000003 0.53050000000000008 3.3535000000000008 0.26750000000000007 9.5000000000000018 10.458500000000003 -0.95799999999999985 0.68300000000000016 1.0610000000000002 19.958500000000004 1.7030000000000001 7.3750000000000009 1.2095000000000002 4.7270000000000012 -0.12749999999999997 0.46700000000000003 -0.20049999999999998 -0.68299999999999994 3.1250000000000004
decision_type=2 2 2 2 2 2 2 2 2 2 2 2 2 2 2 2 2 2 2 2 2 2 2 2 2 2 2 2
left_child=2 3 6 9 14 8 19 15 24 18 -9 20 23 -11 21 -5 -14 -16 -2 27 -8 -4 -13 -6 -3 -21 -10 -1
right_child=1 5 4 7 12 -7 11 10 26 13 -12 22 16 -15 17 -17 -18 -19 -20 25 -22 -23 -24 -25 -26 -27 -28 -29
leaf_value=-0.11050659105811321 0.025239100122964511 0.20195890760421756 -0.041880891937948146 0.15168771167596182 -0.012085843243097003 0.45622867736816403 -0.073435990778021168 0.14622978472799966 0.29373323440551757 0.06444305480529483 0.22845370978725199 -0.044797221497327344 0.017208552899207662 0.10150969139317859 -0.02005658246717363 0.1145329535652588 0.044932951690232169 0.022807749450206756 0.061523948730900883 -0.095915415122591219 -0.054235971752478157 -0.026363743394613268 -0.0060101318359374999 0.0091328587270144267 0.25094930028915408 -0.079061207232138928 0.33846050956032492 -0.09748934162987602
leaf_weight=71 93 20 301 60 95 25 313 33 20 208 49 238 187 106 318 164 122 30 48 116 147 244 21 132 20 241 22 117
leaf_count=71 93 20 301 60 95 25 313 33 20 208 49 238 187 106 318 164 122 30 48 116 147 244 21 132 20 241 22 117
internal_value=5.47485e-10 0.123449 -0.0397897 0.0964114 -0.0111795 0.315745 -0.0721347 0.143479 0.272914 0.0647573 0.195364 -0.0580613 0.0163381 0.076956 -0.0276962 0.124485 0.0281548 -0.0163614 0.0375914 -0.0907012 -0.0673003 -0.0349338 -0.0416523 0.000252785 0.226454 -0.0845376 0.317162 -0.102405
internal_weight=3561 868 2693 761 1429 107 1264 306 82 455 82 719 536 314 893 224 309 348 141 545 460 545 259 227 40 357 42 188
internal_count=3561 868 2693 761 1429 107 1264 306 82 455 82 719 536 314 893 224 309 348 141 545 460 545 259 227 40 357 42 188
is_linear=0
shrinkage=0.01


Tree=5
num_leaves=29
num_cat=0
split_feature=0 0 0 0 0 0 0 3 0 9 14 8 1 9 1 0 11 9 0 0 0 16 1 9 9 13 14 1
split_gain=171448 45083.8 23523.9 11682.6 6310.07 5860.63 3237.02 2955.56 1652.17 1485.2 1306.66 1146.84 1068.33 981.683 892.952 718.009 594.356 493.664 425.283 386.465 361.391 320.462 284.539 246.791 235.23 208.78 206.717 87.2501
threshold=15.875000000000002 33.583500000000008 8.3750000000000018 22.041500000000003 45.750000000000007 12.375000000000002 5.541500000000001 1.3305000000000002 37.791500000000006 0.28150000000000003 0.53050000000000008 1.0000000180025095e-35 3.3535000000000008 -0.10999999999999999 4.4610000000000012 10.458500000000003 -0.95799999999999985 1.0610000000000002 19.958500000000004 3.9585000000000004 7.3750000000000009 0.68300000000000016 4.7270000000000012 0.036500000000000012 0.46700000000000003 5.5000000000000009 0.49100000000000005 1.9115000000000002
decision_type=2 2 2 2 2 2 2 2 2 2 2 2 2 2 2 2 2 2 2 2 2 2 2 2 2 2 2 2
left_child=2 3 6 9 8 15 19 16 24 18 -9 -11 20 25 -15 21 -5 -17 -2 27 -8 -4 -14 -21 -3 -7 -10 -1
right_child=1 4 5 7 -6 13 12 10 26 11 -12 -13 22 14 -16 17 -18 -19 -20 23 -22 -23 -24 -25 -26 -27 -28 -29
leaf_value=-0.10463713720733045 0.024637700472817277 0.19993931317329405 -0.040917484340844336 0.15017083522677421 0.45166638488769528 0.0045684264157269455 -0.072701630866565656 0.14476748322898692 0.29180499985104513 0.044866153381524547 0.22616917649702151 0.086254765527584945 -0.044349251071445085 0.0037230943643047428 0.033587499366998674 -0.019856016435338266 0.11338762330481919 0.022579670111338296 0.060908708078786733 -0.093667694190452844 -0.053693613438379195 -0.025299766862014843 -0.005950031039260683 -0.076705377019587018 0.24843981170654297 -0.025832804143428804 0.33617539542061942 -0.087524647020004898
leaf_weight=153 99 20 324 60 25 37 313 33 21 93 49 239 238 167 250 318 164 30 48 145 147 221 21 210 20 58 21 37
leaf_count=153 99 20 324 60 25 37 313 33 21 93 49 239 238 167 250 318 164 30 48 145 147 221 21 210 20 58 21 37
internal_value=8.84825e-11 0.120025 -0.0401133 0.0937779 0.312587 -0.0119544 -0.0714134 0.142044 0.270185 0.062944 0.19341 0.074661 -0.0574807 0.0150183 0.0216274 -0.0274192 0.12324 -0.0161978 0.0364813 -0.0897942 -0.0666273 -0.0345844 -0.0412358 -0.0836336 0.22419 -0.0139923 0.31399 -0.101305
internal_weight=3561 892 2669 785 107 1405 1264 306 82 479 82 332 719 512 417 893 224 348 147 545 460 545 259 355 40 95 42 190
internal_count=3561 892 2669 785 107 1405 1264 306 82 479 82 332 719 512 417 893 224 348 147 545 460 545 259 355 40 95 42 190
is_linear=0
shrinkage=0.01


Tree=6
num_leaves=28
num_cat=0
split_feature=0 0 0 0 17 0 0 3 0 9 14 1 9 1 0 11 16 9 0 1 0 5 3 1 9 9 0
split_gain=168037 43348.8 23936.7 10888.6 6249.79 6236.65 3172.6 2896.74 1878.49 1449.61 1280.66 1047.07 980.802 957.341 703.721 582.528 555.705 483.84 410.786 379.553 354.2 346.383 317.873 278.876 237.595 217.747 72.2688
threshold=16.208500000000004 33.583500000000008 8.3750000000000018 22.041500000000003 45.500000000000007 12.375000000000002 5.541500000000001 1.3305000000000002 37.791500000000006 0.28850000000000003 0.53050000000000008 3.3535000000000008 0.26750000000000007 7.2485000000000008 10.458500000000003 -0.95799999999999985 0.68300000000000016 1.0610000000000002 17.041500000000003 1.7030000000000001 7.3750000000000009 1.5000000000000002 1.2095000000000002 4.7270000000000012 -0.12749999999999997 0.44600000000000006 3.1250000000000004
decision_type=2 2 2 2 2 2 2 2 2 2 2 2 2 2 2 2 2 2 2 2 2 2 2 2 2 2 2
left_child=2 3 6 9 8 14 19 15 -3 18 -9 20 24 -11 22 -5 -14 -16 -2 26 -8 -10 -4 -13 -7 -21 -1
right_child=1 4 5 7 -6 12 11 10 21 13 -12 23 16 -15 17 -17 -18 -19 -20 25 -22 -23 -24 -25 -26 -27 -28
leaf_value=-0.10835515848347839 -0.0028560063513842497 0.2148647595776452 -0.041114653866750457 0.14866912861665091 0.45551641008128296 -0.011836711845899883 -0.0719746160354858 0.14331980663718599 0.28673289899472837 0.064886334185225325 0.22390747983122661 -0.043905758041293687 0.01676767210750019 0.10433157024106809 -0.019657456776443517 0.11225374432053509 0.044202412573284791 0.022353873888651534 0.044180241961877392 -0.085415130085919222 -0.053156676389733142 0.34088401658194406 -0.02575621890728591 -0.0058905303336325146 0.0089020440004991767 -0.059151896749223977 -0.095566287244487014
leaf_weight=71 22 36 301 60 23 95 313 33 27 230 49 238 187 84 318 164 122 30 119 322 147 21 244 21 132 35 117
leaf_count=71 22 36 301 60 23 95 313 33 27 230 49 238 187 84 318 164 122 30 119 322 147 21 244 21 132 35 117
internal_value=-3.55847e-10 0.120997 -0.0389994 0.0944982 0.309461 -0.0109599 -0.0706992 0.140623 0.26947 0.0634776 0.191476 -0.0569059 0.0160053 0.0754386 -0.027145 0.122008 0.0275995 -0.0160358 0.0368413 -0.0888963 -0.0659611 0.310424 -0.0342386 -0.0408234 0.000222829 -0.0828403 -0.100396
internal_weight=3561 868 2693 761 107 1429 1264 306 84 455 82 719 536 314 893 224 309 348 141 545 460 48 545 259 227 357 188
internal_count=3561 868 2693 761 107 1429 1264 306 84 455 82 719 536 314 893 224 309 348 141 545 460 48 545 259 227 357 188
is_linear=0
shrinkage=0.01


Tree=7
num_leaves=28
num_cat=0
split_feature=0 0 0 0 17 0 0 3 0 9 2 8 1 9 1 0 11 9 0 0 0 5 16 1 9 13 1
split_gain=164711 43304.2 22593.7 11218.7 6125.42 5626.56 3109.47 2839.1 1841.11 1426.69 1259.41 1121.12 1026.24 944.15 870.625 689.717 570.936 474.212 413.626 373.673 347.151 339.49 313.939 273.327 240.343 204.445 83.9414
threshold=15.875000000000002 33.583500000000008 8.3750000000000018 22.041500000000003 45.500000000000007 12.375000000000002 5.541500000000001 1.3305000000000002 37.791500000000006 0.28150000000000003 0.38350000000000006 1.0000000180025095e-35 3.3535000000000008 -0.10999999999999999 4.4610000000000012 10.458500000000003 -0.95799999999999985 1.0610000000000002 19.958500000000004 3.9585000000000004 7.3750000000000009 1.5000000000000002 0.68300000000000016 4.7270000000000012 0.036500000000000012 5.5000000000000009 1.9115000000000002
decision_type=2 2 2 2 2 2 2 2 2 2 2 2 2 2 2 2 2 2 2 2 2 2 2 2 2 2 2
left_child=2 3 6 9 8 15 19 16 -3 18 -9 -11 20 25 -15 22 -5 -17 -2 26 -8 -10 -4 -14 -21 -7 -1
right_child=1 4 5 7 -6 13 12 10 21 11 -12 -13 23 14 -16 17 -18 -19 -20 24 -22 -23 -24 -25 -26 -27 -28
leaf_value=-0.1025943298277512 0.024087370814699118 0.21271611359384324 -0.040164473844163211 0.14718243483702342 0.4509612578931062 0.0046242940264779172 -0.071254868736377541 0.16509219025403765 0.28386556837293841 0.04372885952473328 0.252329162074172 0.084650693734071233 -0.043466701106864861 0.003510339070044592 0.032999026666283612 -0.019460882523899558 0.11113121055248307 0.022130336602528892 0.059857820175820961 -0.091851663293509647 -0.052625108539652667 0.33747518993559339 -0.024706507296853478 -0.0058316238721211758 -0.075112390132177437 -0.02545968479123609 -0.085809445204968388
leaf_weight=153 99 36 324 60 23 37 313 59 27 93 23 239 238 167 250 318 164 30 48 145 147 21 221 21 210 58 37
leaf_count=153 99 36 324 60 23 37 313 59 27 93 23 239 238 167 250 318 164 30 48 145 147 21 221 21 210 58 37
internal_value=3.20165e-10 0.117643 -0.0393173 0.0919192 0.306367 -0.0117208 -0.0699922 0.139217 0.266775 0.0617038 0.189561 0.0731876 -0.0563369 0.0147079 0.0211894 -0.0268735 0.120788 -0.0158754 0.0357675 -0.0880073 -0.0653014 0.30732 -0.0338962 -0.0404152 -0.0819496 -0.0137428 -0.0993257
internal_weight=3561 892 2669 785 107 1405 1264 306 84 479 82 332 719 512 417 893 224 348 147 545 460 48 545 259 355 95 190
internal_count=3561 892 2669 785 107 1405 1264 306 84 479 82 332 719 512 417 893 224 348 147 545 460 48 545 259 355 95 190
is_linear=0
shrinkage=0.01


Tree=8
num_leaves=29
num_cat=0
split_feature=0 0 0 0 0 0 0 3 0 9 14 8 1 9 1 9 11 0 10 0 0 0 1 9 9 15 13 0
split_gain=161433 42442.5 22144.1 10995.4 6033.86 5514.6 3047.59 2782.6 1556.67 1398.3 1249.26 1098.81 1005.81 925.361 853.3 683.166 559.574 405.395 395.233 366.799 350.378 340.243 267.888 247.284 235.17 204.141 200.377 30.7561
threshold=15.875000000000002 33.583500000000008 8.3750000000000018 22.041500000000003 45.750000000000007 12.375000000000002 5.541500000000001 1.3305000000000002 37.791500000000006 0.28150000000000003 0.53050000000000008 1.0000000180025095e-35 3.3535000000000008 -0.10999999999999999 4.4610000000000012 0.54700000000000015 -0.95799999999999985 19.958500000000004 0.65350000000000008 3.6250000000000004 11.625000000000002 7.3750000000000009 4.7270000000000012 0.11700000000000001 0.46700000000000003 -0.68299999999999994 5.5000000000000009 2.8750000000000004
decision_type=2 2 2 2 2 2 2 2 2 2 2 2 2 2 2 2 2 2 2 2 2 2 2 2 2 2 2 2
left_child=2 3 6 9 8 15 19 16 24 17 -9 -11 21 26 -15 20 -5 -2 -17 27 -4 -8 -14 -21 -3 -10 -7 -1
right_child=1 4 5 7 -6 13 12 10 25 11 -12 -13 22 14 -16 18 -18 -19 -20 23 -22 -23 -24 -25 -26 -27 -28 -29
leaf_value=-0.10680102383006704 0.023846496048599782 0.19294577002525329 -0.035260560610417511 0.14571061019847792 0.43930417728424076 0.0045780509065937352 -0.070542321190618859 0.14010350830627211 0.28123698329925539 0.043291570711680639 0.2196970233382011 0.083804186548897416 -0.043032033195515636 0.003475235281233302 0.032669036286175256 -0.016806684690030667 0.11001989547072388 0.05925924074680855 0.029371057987213133 -0.089767026755071824 -0.012592349205261621 -0.052098860081766736 -0.0057733087454523357 -0.074086430588534466 0.2414401502609253 0.32538014585321601 -0.025205088288619601 -0.097247386307551947
leaf_weight=55 99 20 542 60 25 37 313 33 20 93 49 239 238 167 250 253 164 48 20 210 78 147 21 193 20 22 58 87
leaf_count=55 99 20 542 60 25 37 313 33 20 93 49 239 238 167 250 253 164 48 20 210 78 147 21 193 20 22 58 87
internal_value=-1.66921e-10 0.116467 -0.0389241 0.091 0.303303 -0.0116035 -0.0692923 0.137825 0.261839 0.0610868 0.187665 0.0724558 -0.0557735 0.0145608 0.0209775 -0.0266048 0.11958 0.0354098 -0.0134237 -0.0871272 -0.0324088 -0.0646484 -0.0400111 -0.0822575 0.217193 0.30436 -0.0136053 -0.100948
internal_weight=3561 892 2669 785 107 1405 1264 306 82 479 82 332 719 512 417 893 224 147 273 545 620 460 259 403 40 42 95 142
internal_count=3561 892 2669 785 107 1405 1264 306 82 479 82 332 719 512 417 893 224 147 273 545 620 460 259 403 40 42 95 142
is_linear=0
shrinkage=0.01


Tree=9
num_leaves=27
num_cat=0
split_feature=0 0 0 0 17 0 0 9 0 8 3 1 9 9 0 16 9 1 0 5 3 1 0 9 4 0
split_gain=158228 40807.9 22531.6 10246.6 5947.74 5867.52 2986.94 2751.34 1759.9 1391.68 1377.65 985.798 927.428 846.657 671.318 543.658 460.255 361.282 333.472 330.891 308.595 262.557 244.398 221.208 212.245 68.0796
threshold=16.208500000000004 33.583500000000008 8.3750000000000018 22.041500000000003 45.500000000000007 12.375000000000002 5.541500000000001 2.3010000000000006 37.791500000000006 15.500000000000002 1.3305000000000002 3.3535000000000008 0.26750000000000007 -0.046999999999999993 10.458500000000003 0.68300000000000016 1.0610000000000002 1.7030000000000001 7.3750000000000009 1.5000000000000002 1.2250000000000003 4.7270000000000012 18.375000000000004 -0.10999999999999999 -0.20049999999999998 3.1250000000000004
decision_type=2 2 2 2 2 2 2 2 2 2 2 2 2 2 2 2 2 2 2 2 2 2 2 2 2 2
left_child=2 3 6 9 8 14 17 10 -3 13 -5 18 23 -2 20 -14 -16 25 -8 -10 -4 -13 -11 -7 -19 -1
right_child=1 4 5 7 -6 12 11 -9 19 22 -12 21 15 -15 16 -17 -18 24 -20 -21 -22 -23 -24 -25 -26 -27
leaf_value=-0.10520052520322129 0.02659079370157021 0.20840355449252659 -0.039843282217346732 0.11598245285861536 0.44275200988935387 -0.011056650058187621 -0.069836897838372769 0.24418240850622003 0.27774198744032119 0.083267598606291279 0.16812935663895176 -0.042601712859478315 0.016075643062750923 0.062605914439540361 -0.019020627618960614 0.043211364581795468 0.021953958829243975 -0.091461390174668408 -0.051577869197543792 0.33066827774047852 -0.02465678534265292 -0.0057155765947841464 0.12717139273881911 0.008849670152412727 -0.074998154644525888 -0.092787849801218417
leaf_weight=71 82 36 309 218 23 99 313 22 27 21 66 238 187 320 318 122 30 116 147 21 236 21 32 128 241 117
leaf_count=71 82 36 309 218 23 99 313 22 27 21 66 238 187 320 318 122 30 116 147 21 236 21 32 128 241 117
internal_value=2.11988e-10 0.117413 -0.0378441 0.0917019 0.30027 -0.0106399 -0.0685994 0.136447 0.261257 0.0616098 0.128101 -0.0552158 0.0155151 0.0552595 -0.0263388 0.0267894 -0.0154883 -0.0862559 -0.0640019 0.300897 -0.0332671 -0.0396109 0.109776 0.000168059 -0.0803476 -0.0974756
internal_weight=3561 868 2693 761 107 1429 1264 306 84 455 284 719 536 402 893 309 348 545 460 48 545 259 53 227 357 188
internal_count=3561 868 2693 761 107 1429 1264 306 84 455 284 719 536 402 893 309 348 545 460 48 545 259 53 227 357 188
is_linear=0
shrinkage=0.01


Tree=10
num_leaves=28
num_cat=0
split_feature=0 0 0 0 0 0 0 9 0 3 9 8 1 9 1 9 0 10 0 0 0 10 9 9 15 13 1
split_gain=155090 40767.2 21268.4 10558.8 5841.46 5294.37 2927.5 2696.59 1495.97 1350.24 1349.29 1070.89 966.181 889.734 832.012 663.748 397.145 384.644 355.36 339.975 326.836 259.855 232.746 230.08 199.464 196.389 79.8381
threshold=15.875000000000002 33.583500000000008 8.3750000000000018 22.041500000000003 45.750000000000007 12.375000000000002 5.541500000000001 2.3010000000000006 37.791500000000006 1.3305000000000002 0.28150000000000003 1.0000000180025095e-35 3.3535000000000008 -0.10999999999999999 4.4610000000000012 0.54700000000000015 19.958500000000004 0.65350000000000008 3.9585000000000004 11.625000000000002 7.3750000000000009 0.38850000000000007 0.46700000000000003 0.036500000000000012 -0.68299999999999994 5.5000000000000009 1.9115000000000002
decision_type=2 2 2 2 2 2 2 2 2 2 2 2 2 2 2 2 2 2 2 2 2 2 2 2 2 2 2
left_child=2 3 6 10 8 15 18 9 22 -5 16 -12 20 25 -15 19 -2 -17 26 -4 -8 -14 -3 -20 -10 -7 -1
right_child=1 4 5 7 -6 13 12 -9 24 -11 11 -13 21 14 -16 17 -18 -19 23 -21 -22 -23 -24 -25 -26 -27 -28
leaf_value=-0.099618699379216608 0.023215107701417773 0.18858074903488159 -0.034605391929510336 0.11482262981901747 0.43108263950347897 0.0046428367737177253 -0.069138529052654399 0.24174058090556752 0.27529693508148195 0.1664480623365803 0.042259697771521026 0.08225435730553074 -0.045911121724704122 0.0032692780820820144 0.032096618258059026 -0.01642030377397424 0.058265684594710668 0.02913465416431427 -0.089174340313878567 -0.012276220015990429 -0.051062092207321504 -0.024231892146170136 0.23682454442977907 -0.072796363606339412 0.31893145214427604 -0.0248424700313601 -0.083249205713336535
leaf_weight=153 99 20 542 218 25 37 313 22 20 66 93 239 179 167 250 253 48 20 145 78 147 80 20 210 22 58 37
leaf_count=153 99 20 542 218 25 37 313 22 20 66 93 239 179 167 250 253 48 20 145 78 147 80 20 210 22 58 37
internal_value=6.42955e-11 0.114156 -0.0381517 0.0891964 0.297267 -0.0113767 -0.0679134 0.135082 0.25647 0.12682 0.0598831 0.071051 -0.0546636 0.0142599 0.0205519 -0.0260754 0.0346602 -0.0130829 -0.0853934 -0.0317962 -0.0633619 -0.0392148 0.212703 -0.079486 0.298153 -0.0133587 -0.096431
internal_weight=3561 892 2669 785 107 1405 1264 306 82 284 479 332 719 512 417 893 147 273 545 620 460 259 40 355 42 95 190
internal_count=3561 892 2669 785 107 1405 1264 306 82 284 479 332 719 512 417 893 147 273 545 620 460 259 40 355 42 95 190
is_linear=0
shrinkage=0.01


Tree=11
num_leaves=26
num_cat=0
split_feature=0 0 0 0 0 17 9 0 9 0 3 8 9 1 11 0 9 9 9 5 16 0 9 3 7
split_gain=152007 37873 23360.6 9323.82 6653.95 5792.42 2721.1 2241.98 1497.56 1436.03 1333.54 1175.24 1138.22 689.138 638.827 594.204 577.843 494.86 446.704 322.513 298.189 278.417 261.25 209.868 137.925
threshold=16.625000000000004 34.375000000000007 10.458500000000003 22.041500000000003 6.6250000000000009 45.500000000000007 2.411 12.375000000000002 0.59950000000000003 37.791500000000006 1.3305000000000002 10.500000000000002 0.26750000000000007 3.4800000000000004 -0.66499999999999992 4.8750000000000009 -0.046999999999999993 1.7080000000000002 1.0610000000000002 1.5000000000000002 0.68300000000000016 7.3750000000000009 -0.022499999999999996 0.70400000000000007 2.5000000000000004
decision_type=2 2 2 2 2 2 2 2 2 2 2 2 2 2 2 2 2 2 2 2 2 2 2 2 2
left_child=2 3 4 11 8 9 10 18 15 -3 -5 16 23 21 -14 -1 -2 -13 22 -11 -15 -6 -4 -9 -10
right_child=1 5 7 6 13 -7 -8 12 24 19 -12 17 14 20 -16 -17 -18 -19 -20 -21 -22 -23 -24 -25 -26
leaf_value=-0.089757789107194785 0.029004500174290827 0.20728964574875369 -0.035343644395470622 0.11525698460471469 -0.063098959157965623 0.44381272337653421 0.24771533489227296 -0.018338826022421321 -0.036719573676586154 0.27174533420138891 0.16556278735237279 0.080261014447067722 0.0061922209005761935 -0.037982869233115245 0.037186440402106474 -0.072321099711947112 0.060831128451898399 0.13328649908304216 0.021777141600847247 0.32399729774111791 -0.022679233930871952 -0.044142523889203325 -0.013686171699830187 0.005039172178755204 0.00041864772140979764
leaf_weight=384 74 31 72 223 98 22 20 48 20 27 69 66 91 295 247 398 249 24 30 21 224 370 246 192 20
leaf_count=384 74 31 72 223 98 22 20 48 20 27 69 66 91 295 247 398 249 24 30 21 224 370 246 192 20
internal_value=-6.99394e-11 0.118887 -0.0359052 0.0936136 -0.056815 0.300306 0.134873 0.00494338 -0.0778307 0.260342 0.127144 0.062444 0.017017 -0.0393126 0.0288418 -0.0808834 0.0535396 0.0944011 -0.0151098 0.294606 -0.0313778 -0.048112 -0.0185898 0.000363573 -0.0181505
internal_weight=3561 826 2735 725 1809 101 312 926 822 79 292 413 578 987 338 782 323 90 348 48 519 468 318 240 40
internal_count=3561 826 2735 725 1809 101 312 926 822 79 292 413 578 987 338 782 323 90 348 48 519 468 318 240 40
is_linear=0
shrinkage=0.01


Tree=12
num_leaves=27
num_cat=0
split_feature=0 0 0 0 17 0 0 9 0 9 3 8 1 9 1 9 0 10 1 0 5 0 1 4 13 0
split_gain=149016 39168.4 20446.2 10132.6 5662.05 5073.69 2809.95 2592.27 1646.43 1302.26 1297.44 1041.78 927.722 860.329 811.222 643.65 388.619 375.067 345.657 330.283 316.095 311.625 255.053 206.038 192.494 65.499
threshold=15.875000000000002 33.583500000000008 8.3750000000000018 22.041500000000003 45.500000000000007 12.375000000000002 5.541500000000001 2.3010000000000006 37.791500000000006 0.28150000000000003 1.3305000000000002 1.0000000180025095e-35 3.3535000000000008 -0.10999999999999999 4.4610000000000012 0.54700000000000015 20.458500000000004 0.65350000000000008 1.7030000000000001 11.625000000000002 1.5000000000000002 7.3750000000000009 4.7270000000000012 -0.20049999999999998 5.5000000000000009 3.1250000000000004
decision_type=2 2 2 2 2 2 2 2 2 2 2 2 2 2 2 2 2 2 2 2 2 2 2 2 2 2
left_child=2 3 6 9 8 15 18 10 -3 16 -5 -11 21 24 -15 19 -2 -17 25 -4 -10 -8 -14 -20 -7 -1
right_child=1 4 5 7 -6 13 12 -9 20 11 -12 -13 22 14 -16 17 -18 -19 23 -21 -22 -23 -24 -25 -26 -27
leaf_value=-0.1022547565379613 0.026400999678375801 0.20219722284211053 -0.033936324991918142 0.11252183395927054 0.43040090021879779 0.0046155188212523594 -0.067760835288050839 0.23695805159482089 0.26902787809018736 0.041291835912132778 0.16312795366075908 0.080738987926409336 -0.041406354904018283 0.0030736181816409624 0.031538515500128268 -0.016035256983027629 0.06901390293469796 0.028948992609977724 -0.088874202956413392 -0.011927745372821125 0.32075732685270764 -0.050110045262187923 -0.0050511228896322705 -0.07265347785103865 -0.024575916081666947 -0.090079613995348279
leaf_weight=71 121 36 542 218 23 37 313 22 27 93 66 239 238 167 250 253 26 20 116 78 21 147 21 241 58 117
leaf_count=71 121 36 542 218 23 37 313 22 27 93 66 239 238 167 250 253 26 20 116 78 21 147 21 241 58 117
internal_value=-5.79311e-11 0.111898 -0.0373971 0.087433 0.291383 -0.0111448 -0.0665779 0.132383 0.253319 0.0587174 0.124282 0.069689 -0.0535968 0.0139517 0.0201389 -0.0255339 0.033938 -0.0127397 -0.0837033 -0.0311675 0.29166 -0.0621203 -0.0384586 -0.0779241 -0.0132066 -0.0946777
internal_weight=3561 892 2669 785 107 1405 1264 306 84 479 284 332 719 512 417 893 147 273 545 620 48 460 259 357 95 188
internal_count=3561 892 2669 785 107 1405 1264 306 84 479 284 332 719 512 417 893 147 273 545 620 48 460 259 357 95 188
is_linear=0
shrinkage=0.01


Tree=13
num_leaves=26
num_cat=0
split_feature=0 0 0 0 0 17 9 0 9 0 3 8 9 1 11 0 9 9 9 5 16 0 9 3 7
split_gain=146052 36386.8 22460.1 8947.14 6387.41 5569 2619.05 2141.51 1455.02 1378.47 1280.49 1138.31 1095.34 662.063 625.345 571.846 557.861 484.251 433.549 309.805 293.361 265.59 255.866 204.706 134.243
threshold=16.625000000000004 34.375000000000007 10.458500000000003 22.041500000000003 6.6250000000000009 45.500000000000007 2.411 12.375000000000002 0.59950000000000003 37.791500000000006 1.3305000000000002 10.500000000000002 0.26750000000000007 3.4800000000000004 -0.66499999999999992 4.8750000000000009 -0.046999999999999993 1.7080000000000002 1.0610000000000002 1.5000000000000002 0.68300000000000016 7.3750000000000009 -0.022499999999999996 0.70400000000000007 2.5000000000000004
decision_type=2 2 2 2 2 2 2 2 2 2 2 2 2 2 2 2 2 2 2 2 2 2 2 2 2
left_child=2 3 4 11 8 9 10 18 15 -3 -5 16 23 21 -14 -1 -2 -13 22 -11 -15 -6 -4 -9 -10
right_child=1 5 7 6 13 -7 -8 12 24 19 -12 17 14 20 -16 -17 -18 -19 -20 -21 -22 -23 -24 -25 -26
leaf_value=-0.088003025002932792 0.02835830847506185 0.20319477273571879 -0.034748659585085183 0.11294885641055791 -0.061811875269311117 0.43507058533755216 0.24288598632812503 -0.018148943145448963 -0.035781308338046075 0.26633760099057802 0.16224378180676613 0.078692179146138103 0.0058493287513380525 -0.037323426359285747 0.036514753094970473 -0.070897520115159124 0.05962979974247605 0.13114624410867692 0.021599765141805012 0.31754975182669504 -0.022144189502578231 -0.043297268753317568 -0.013315510328223066 0.0049397583492100236 0.00085784070938825605
leaf_weight=384 74 31 72 223 98 22 20 48 20 27 69 66 91 295 247 398 249 24 30 21 224 370 246 192 20
leaf_count=384 74 31 72 223 98 22 20 48 20 27 69 66 91 295 247 398 249 24 30 21 224 370 246 192 20
internal_value=-1.95255e-11 0.116535 -0.0351949 0.0917623 -0.0556977 0.294359 0.13218 0.00485874 -0.0762881 0.255173 0.124597 0.0612289 0.0166587 -0.0385494 0.0282587 -0.0792972 0.0524654 0.0926799 -0.01474 0.288743 -0.0307721 -0.0471743 -0.0181683 0.000322018 -0.0174617
internal_weight=3561 826 2735 725 1809 101 312 926 822 79 292 413 578 987 338 782 323 90 348 48 519 468 318 240 40
internal_count=3561 826 2735 725 1809 101 312 926 822 79 292 413 578 987 338 782 323 90 348 48 519 468 318 240 40
is_linear=0
shrinkage=0.01


Tree=14
num_leaves=28
num_cat=0
split_feature=0 0 0 0 0 0 0 9 0 8 3 1 9 1 9 9 10 0 0 0 0 10 9 9 14 13 9
split_gain=143180 37632.3 19655.8 9723.54 5504.71 4862.16 2697.05 2491.95 1373.28 1263.65 1246.72 890.767 831.915 790.984 776.599 624.163 365.735 336.918 320.878 297.104 290.418 249.027 231.696 231.289 194.125 188.676 29.6362
threshold=15.875000000000002 33.583500000000008 8.3750000000000018 22.041500000000003 45.750000000000007 12.375000000000002 5.541500000000001 2.3010000000000006 37.791500000000006 15.500000000000002 1.3305000000000002 3.3535000000000008 -0.10999999999999999 4.4610000000000012 0.28150000000000003 0.54700000000000015 0.65350000000000008 3.6250000000000004 11.625000000000002 7.3750000000000009 18.375000000000004 0.38850000000000007 0.11700000000000001 0.46700000000000003 0.49100000000000005 5.5000000000000009 0.092500000000000013
decision_type=2 2 2 2 2 2 2 2 2 2 2 2 2 2 2 2 2 2 2 2 2 2 2 2 2 2 2
left_child=2 3 6 9 8 15 17 10 23 14 -5 19 25 -14 -2 18 -17 26 -4 -8 -11 -13 -19 -3 -10 -7 -1
right_child=1 4 5 7 -6 12 11 -9 24 20 -12 21 13 -15 -16 16 -18 22 -20 -21 -22 -23 -24 -25 -26 -27 -28
leaf_value=-0.099371822393393219 0.033049598542896852 0.18003084182739257 -0.033280328514322471 0.11026712567160983 0.41551607189178469 0.0045886085967759829 -0.066410619168521492 0.23226957711306487 0.26444949377150762 0.075566964460455854 0.15987423696301201 -0.044272751648749054 0.0028832695831706424 0.030990860179886226 0.06153238035892572 -0.015658803747694482 0.028762270927429202 -0.084648371029467817 -0.011587381313244502 -0.04917597281993652 0.12215281307697297 -0.023049992291256784 -0.0694700586672274 0.22812339973449708 0.30744727452596027 -0.024311881188688607 -0.090176405679611923
leaf_weight=79 146 20 542 218 25 37 313 22 21 23 66 179 167 250 278 253 20 210 78 147 32 80 193 20 21 58 63
leaf_count=79 146 20 542 218 25 37 313 22 21 23 66 179 167 250 278 253 20 210 78 147 32 80 193 20 21 58 63
internal_value=2.03473e-11 0.109685 -0.0366575 0.0857045 0.285615 -0.0109176 -0.0652687 0.129738 0.246011 0.0575745 0.121796 -0.0525511 0.0136502 0.0197343 0.0517246 -0.0250036 -0.0124045 -0.0820465 -0.0305512 -0.060903 0.102671 -0.0377175 -0.0773794 0.204077 0.285948 -0.0130559 -0.0952922
internal_weight=3561 892 2669 785 107 1405 1264 306 82 479 284 719 512 417 424 893 273 545 620 460 55 259 403 40 42 95 142
internal_count=3561 892 2669 785 107 1405 1264 306 82 479 284 719 512 417 424 893 273 545 620 460 55 259 403 40 42 95 142
is_linear=0
shrinkage=0.01


Tree=15
num_leaves=27
num_cat=0
split_feature=0 0 0 0 17 0 0 9 0 8 3 9 9 9 0 16 0 9 1 16 5 7 0 4 9 0
split_gain=140332 36189.3 20000.3 9457.03 5406.06 5175.69 2643.38 2519.89 1316.06 1270.66 1229.04 876.747 824.312 764.956 613.761 529.568 507.607 420.778 331.362 303.167 301.334 290.789 229.086 199.866 199.78 62.8721
threshold=16.208500000000004 34.375000000000007 8.3750000000000018 22.041500000000003 45.500000000000007 12.375000000000002 5.541500000000001 2.411 37.791500000000006 15.500000000000002 1.3305000000000002 0.51200000000000012 0.26750000000000007 -0.046999999999999993 10.458500000000003 0.68300000000000016 7.3750000000000009 1.0610000000000002 1.7030000000000001 0.68300000000000016 1.5000000000000002 6.5000000000000009 18.375000000000004 -0.20049999999999998 -0.12749999999999997 3.1250000000000004
decision_type=2 2 2 2 2 2 2 2 2 2 2 2 2 2 2 2 2 2 2 2 2 2 2 2 2 2
left_child=2 3 6 9 8 14 18 10 -3 13 -5 16 24 -2 19 -14 -8 -16 25 -4 -10 -13 -11 -20 -7 -1
right_child=1 4 5 7 -6 12 11 -9 20 22 -12 21 15 -15 17 -17 -18 -19 23 -21 -22 -23 -24 -25 -26 -27
leaf_value=-0.099394722656464915 0.024746946909623903 0.19911429897431404 -0.037538011253374505 0.1106967419185446 0.42714867429299785 -0.010971506595611573 -0.065502254872447874 0.23813649749755861 0.26060665589791759 0.078425017992655444 0.15899112493231676 -0.038554541516412792 0.014610575940958 0.058980283985380078 -0.017756073994081724 0.041392358877986181 -0.045753670582329438 0.02142189991474152 -0.086352494441229735 -0.022347572714225203 0.31111386299133303 -0.0057332619093358522 0.12093128338456154 -0.070376560282410433 0.0080454029854048377 -0.087466219673808826
leaf_weight=71 82 31 324 223 22 95 345 20 27 21 69 131 187 320 318 122 209 30 116 221 21 34 32 241 132 117
leaf_count=71 82 31 324 223 22 95 345 20 27 21 69 131 187 320 318 122 209 30 116 221 21 34 32 241 132 117
internal_value=1.13419e-10 0.110573 -0.0356397 0.0871423 0.288511 -0.0100092 -0.064616 0.129546 0.249903 0.0580652 0.122109 -0.0520256 0.0145555 0.0519974 -0.0247535 0.0251846 -0.058052 -0.0143787 -0.0812261 -0.0313782 0.282704 -0.0317914 0.104089 -0.0755676 8.67844e-05 -0.0919711
internal_weight=3561 868 2693 767 101 1429 1264 312 79 455 292 719 536 402 893 309 554 348 545 545 48 165 53 357 227 188
internal_count=3561 868 2693 767 101 1429 1264 312 79 455 292 719 536 402 893 309 554 348 545 545 48 165 53 357 227 188
is_linear=0
shrinkage=0.01


Tree=16
num_leaves=26
num_cat=0
split_feature=0 0 0 0 0 17 9 0 9 0 3 8 9 1 11 0 18 9 9 5 16 9 0 3 7
split_gain=137555 34253 21160 8412.66 6014.07 5298.48 2469.75 2003.37 1395.61 1289.87 1204.58 1078.5 1035.05 630.071 612.219 540.779 536.937 464.591 412.405 295.338 286.093 250.596 247.763 198.696 129.834
threshold=16.625000000000004 34.375000000000007 10.458500000000003 22.041500000000003 6.6250000000000009 45.500000000000007 2.411 12.375000000000002 0.59950000000000003 37.791500000000006 1.3305000000000002 10.500000000000002 0.26750000000000007 3.4800000000000004 -0.66499999999999992 4.8750000000000009 1.5000000000000002 1.7080000000000002 1.0610000000000002 1.5000000000000002 0.68300000000000016 -0.022499999999999996 8.1250000000000018 0.70400000000000007 2.5000000000000004
decision_type=2 2 2 2 2 2 2 2 2 2 2 2 2 2 2 2 8 2 2 2 2 2 2 2 2
left_child=2 3 4 11 8 9 10 18 15 -3 -5 16 23 22 -14 -1 -2 -13 21 -11 -15 -4 -6 -9 -10
right_child=1 5 7 6 13 -7 -8 12 24 19 -12 17 14 20 -16 -17 -18 -19 -20 -21 -22 -23 -24 -25 -26
leaf_value=-0.085449030942594026 0.082967863155735858 0.19712315413259693 -0.0339872224877278 0.10958977398115957 -0.05310672314439574 0.42287717840888284 0.23575513458251954 -0.017944218860939144 -0.034439350634813314 0.25800058400189435 0.15740121565867163 0.076364566674738218 0.0052375850630003015 -0.036299381760628781 0.035579465515986994 -0.0688146654711147 0.045734328754219435 0.12774276584386826 0.02120768071214358 0.30800272078741164 -0.021309351802691317 -0.012775964199042903 -0.03855462798717408 0.0048030607029795648 0.0015931806564331056
leaf_weight=384 45 31 72 223 234 22 20 48 20 27 69 66 91 295 247 398 278 24 30 21 224 246 234 192 20
leaf_count=384 45 31 72 223 234 22 20 48 20 27 69 66 91 295 247 398 278 24 30 21 224 246 234 192 20
internal_value=-9.85212e-11 0.113095 -0.0341558 0.0890592 -0.0540564 0.285626 0.128251 0.00472125 -0.074036 0.247404 0.120888 0.0594518 0.0161343 -0.0374168 0.0274105 -0.0769829 0.0509217 0.0900654 -0.0142349 0.279877 -0.0298297 -0.0175785 -0.0458307 0.000253605 -0.0164231
internal_weight=3561 826 2735 725 1809 101 312 926 822 79 292 413 578 987 338 782 323 90 348 48 519 318 468 240 40
internal_count=3561 826 2735 725 1809 101 312 926 822 79 292 413 578 987 338 782 323 90 348 48 519 318 468 240 40
is_linear=0
shrinkage=0.01


Tree=17
num_leaves=29
num_cat=0
split_feature=0 0 0 0 0 0 0 3 0 9 8 9 9 2 13 16 9 0 9 0 0 7 9 9 15 13 15 9
split_gain=134850 35447 18509.9 9139.57 5252.1 4571.04 2538.79 2352.29 1285.62 1203.2 993.773 861.733 846.252 774.946 757.695 731.252 631.268 488.478 452.564 378.935 322.607 283.806 227.641 223.87 192.447 136.325 116.898 28.8539
threshold=15.875000000000002 33.583500000000008 8.3750000000000018 22.041500000000003 45.750000000000007 11.958500000000003 5.541500000000001 1.5015000000000003 37.791500000000006 0.28150000000000003 1.0000000180025095e-35 -0.12749999999999997 0.51200000000000012 0.38350000000000006 8.5000000000000018 0.68300000000000016 0.0085000000000000023 7.3750000000000009 1.2080000000000002 19.958500000000004 3.6250000000000004 6.5000000000000009 0.46700000000000003 0.11700000000000001 -0.68299999999999994 5.5000000000000009 0.68300000000000016 0.092500000000000013
decision_type=2 2 2 2 2 2 2 2 2 2 2 2 2 2 2 2 2 2 2 2 2 2 2 2 2 2 2 2
left_child=2 3 6 9 8 16 20 14 22 19 -11 25 17 -9 -5 -13 26 -8 -18 -2 27 -14 -3 -22 -10 -7 -4 -1
right_child=1 4 5 7 -6 11 12 13 24 10 -12 15 21 -15 -16 -17 18 -19 -20 -21 23 -23 -24 -25 -26 -27 -28 -29
leaf_value=-0.09660476062871233 0.020902607354401338 0.17407829296588898 -0.038511712593026458 0.10846764389980347 0.40407767362594604 0.00011868460476398469 -0.064230259624944219 0.155098850644868 0.25469875049591062 0.038711404209575986 0.077239021237931804 0.0058500708999546401 -0.037803329895214954 0.23486380525997708 0.17116130738031296 0.030982019355020873 -0.022770433639233457 -0.044857356245295285 0.01981902619967094 0.055140179644028349 -0.082196255682479777 -0.0053785018392783759 0.22179002094268799 -0.067276492158983653 0.29755892666903411 -0.02314697417704498 -0.059830888307863664 -0.087531509929233128
leaf_weight=79 99 20 151 235 25 40 345 29 20 93 239 266 131 21 21 205 618 209 26 48 210 34 20 193 22 68 31 63
leaf_count=79 99 20 151 235 25 40 345 29 20 93 239 266 131 21 21 205 618 209 26 48 210 34 20 193 22 68 31 63
internal_value=-1.10954e-10 0.106446 -0.0355752 0.0831728 0.277192 -0.0105969 -0.0633398 0.125864 0.238508 0.0559006 0.0664466 0.0109468 -0.051001 0.1886 0.11361 0.0167886 -0.0256984 -0.0569217 -0.021051 0.0320822 -0.0796181 -0.0311219 0.197934 -0.0750511 0.277149 -0.0145301 -0.042143 -0.0925793
internal_weight=3561 892 2669 785 107 1405 1264 306 82 479 332 579 719 50 256 471 826 554 644 147 545 165 40 403 42 108 182 142
internal_count=3561 892 2669 785 107 1405 1264 306 82 479 332 579 719 50 256 471 826 554 644 147 545 165 40 403 42 108 182 142
is_linear=0
shrinkage=0.01


Tree=18
num_leaves=28
num_cat=0
split_feature=0 0 0 0 0 0 0 9 0 9 3 1 9 1 9 9 10 1 16 6 0 1 9 9 15 13 0
split_gain=132166 34741.6 18141.5 8957.69 5147.58 4481.96 2488.27 2319.3 1260.03 1187.35 1158.22 834.078 774.659 766.77 765.899 595.432 350.33 317.671 309.69 276.077 275.293 242.214 223.111 194.714 188.617 181.613 60.3543
threshold=15.875000000000002 33.583500000000008 8.3750000000000018 22.041500000000003 45.750000000000007 12.375000000000002 5.541500000000001 2.3010000000000006 37.791500000000006 1.5855000000000004 1.3305000000000002 3.3535000000000008 -0.10999999999999999 4.4610000000000012 0.28150000000000003 0.54700000000000015 0.65350000000000008 1.7030000000000001 0.68300000000000016 0.13150000000000003 7.3750000000000009 4.7270000000000012 0.46700000000000003 0.46000000000000008 -0.68299999999999994 5.5000000000000009 3.1250000000000004
decision_type=2 2 2 2 2 2 2 2 2 2 2 2 2 2 2 2 2 2 2 2 2 2 2 2 2 2 2
left_child=2 3 6 9 8 15 17 10 22 14 -5 20 25 -14 -2 18 -17 26 -4 -11 -8 -13 -3 -19 -10 -7 -1
right_child=1 4 5 7 -6 12 11 -9 24 19 -12 21 13 -15 -16 16 -18 23 -20 -21 -22 -23 -24 -25 -26 -27 -28
leaf_value=-0.096616020807078193 0.031761400736108121 0.1723375123143196 -0.035519584075160579 0.10583089930143148 0.4000368982315064 0.0046371954357301865 -0.063874420052328809 0.22352074211293999 0.25215176534652711 0.081979174152947962 0.15364477414976466 -0.039009741382720342 0.0023766821025017495 0.030050708070397378 0.059814158992634876 -0.014894310843140595 0.028581188172101975 -0.075518470158635304 -0.021226283825623492 0.13228529286384583 -0.047284448321173789 -0.0035813667234920322 0.2195721219778061 -0.048899056285619739 0.29458333795720881 -0.023717213463166666 -0.084928810331556526
leaf_weight=71 147 20 356 218 25 37 313 22 20 24 66 238 167 250 288 253 20 327 264 20 147 21 20 30 22 58 117
leaf_count=71 147 20 356 218 25 37 313 22 20 24 66 238 167 250 288 253 20 327 264 20 147 21 20 30 22 58 117
internal_value=-3.40615e-11 0.105382 -0.0352195 0.0823411 0.27442 -0.010491 -0.0627065 0.124605 0.236123 0.0553416 0.116943 -0.050491 0.0130968 0.0189678 0.0503343 -0.0240149 -0.0117093 -0.0788219 -0.0294334 0.104846 -0.0585728 -0.0361372 0.195955 -0.0732815 0.274378 -0.0126739 -0.0893426
internal_weight=3561 892 2669 785 107 1405 1264 306 82 479 284 719 512 417 435 893 273 545 620 44 460 259 40 357 42 95 188
internal_count=3561 892 2669 785 107 1405 1264 306 82 479 284 719 512 417 435 893 273 545 620 44 460 259 40 357 42 95 188
is_linear=0
shrinkage=0.01


Tree=19
num_leaves=27
num_cat=0
split_feature=0 0 0 0 0 17 3 0 9 8 0 9 4 9 11 1 3 0 9 9 5 16 9 0 3 7
split_gain=129564 32245.6 19970.1 7934.03 5651.37 5094.83 2083.78 1866.46 1338.05 1201.09 1199.23 984.767 710.941 701.179 598.472 597.392 537.35 511.235 393.684 313.943 286.239 280.43 241.934 231.089 192.883 125.52
threshold=16.625000000000004 34.375000000000007 10.458500000000003 23.041500000000003 6.6250000000000009 45.500000000000007 1.5015000000000003 12.375000000000002 0.59950000000000003 15.500000000000002 37.791500000000006 0.26750000000000007 1.9055000000000002 0.019000000000000006 -0.66499999999999992 3.4800000000000004 1.1255000000000002 4.8750000000000009 1.0610000000000002 1.8495000000000001 1.5000000000000002 0.68300000000000016 -0.022499999999999996 7.3750000000000009 0.70400000000000007 2.5000000000000004
decision_type=2 2 2 2 2 2 2 2 2 2 2 2 2 2 2 2 2 2 2 2 2 2 2 2 2 2
left_child=2 3 4 9 8 10 16 18 17 13 -3 24 -8 -2 -13 23 -5 -1 22 -11 -12 -17 -4 -6 -9 -10
right_child=1 5 7 6 15 -7 12 11 25 19 20 14 -14 -15 -16 21 -18 -19 -20 -21 -22 -23 -24 -25 -26 -27
leaf_value=-0.082966643255203962 0.031223682514441912 0.19119771953552001 -0.033067044856854612 0.10446033524136052 -0.05819831610638268 0.41174753118645063 0.23266758268529716 -0.017784305098466575 -0.033151759877800939 0.087084775732623215 0.24945410127992984 0.0047118601419932236 0.15315282344818115 0.062519295178593351 0.034711146539582412 -0.03536932269762412 0.13630299486471026 -0.066793050953566122 0.020951228201389314 0.13649913239479067 0.29867994263058617 -0.020528389929635786 -0.01222559753411669 -0.04092807546575912 0.0046277548686096751 0.0022770577222108838
leaf_weight=384 93 31 72 131 98 22 22 48 20 36 27 91 23 311 247 295 89 398 30 20 21 224 246 370 192 20
leaf_count=384 93 31 72 131 98 22 22 48 20 36 27 91 23 311 247 295 89 398 30 20 21 224 246 370 192 20
internal_value=5.50122e-11 0.10976 -0.0331488 0.0864397 -0.0524817 0.27716 0.130024 0.00461936 -0.0718495 0.0613312 0.239679 0.0156355 0.192027 0.0553151 0.0266344 -0.0363517 0.117342 -0.0747351 -0.0136775 0.104733 0.27099 -0.028964 -0.0169444 -0.0445445 0.000145343 -0.0154374
internal_weight=3561 826 2735 725 1809 101 265 926 822 460 79 578 45 404 338 987 220 782 348 56 48 519 318 468 240 40
internal_count=3561 826 2735 725 1809 101 265 926 822 460 79 578 45 404 338 987 220 782 348 56 48 519 318 468 240 40
is_linear=0
shrinkage=0.01


Tree=20
num_leaves=27
num_cat=0
split_feature=0 0 0 0 17 0 0 9 0 9 3 9 9 8 9 16 0 9 0 5 7 14 9 9 15 1
split_gain=126998 34144.1 16620.6 9135.21 4985.38 3880.13 2388.15 2248.07 1373.14 1317.88 1110.41 808.973 762.692 750.501 609.444 588.001 458.833 432.682 309.379 280.542 276.158 271.965 212.038 210.863 113.358 72.6
threshold=15.625000000000002 33.583500000000008 8.3750000000000018 22.041500000000003 45.500000000000007 11.958500000000003 5.541500000000001 2.3010000000000006 37.791500000000006 1.5855000000000004 1.3305000000000002 0.51200000000000012 0.26750000000000007 -1.4999999999999998 0.0085000000000000023 0.68300000000000016 7.3750000000000009 1.2080000000000002 3.9585000000000004 1.5000000000000002 6.5000000000000009 0.52850000000000008 -0.12749999999999997 0.036500000000000012 0.68300000000000016 1.9115000000000002
decision_type=2 2 2 2 2 2 2 2 2 2 2 2 2 2 2 2 2 2 2 2 2 2 2 2 2 2
left_child=2 3 6 9 8 14 18 10 -3 13 -5 16 22 -2 24 -14 -8 -16 25 -10 -13 -11 -7 -20 -4 -1
right_child=1 4 5 7 -6 12 11 -9 19 21 -12 20 15 -15 17 -17 -18 -19 23 -21 -22 -23 -24 -25 -26 -27
leaf_value=-0.09059972259733412 0.029098848050010617 0.18657990096343888 -0.037514164594328957 0.10373963012983767 0.39943024091098622 -0.014657649942315543 -0.062378253657748739 0.21954855290326206 0.24695956018235948 0.077544668866764935 0.15055627051627998 -0.036660582099593324 0.0085069530721896339 0.056550513040332956 -0.022047073011720569 0.036779944040184101 -0.043602410274686997 0.019596354159025046 -0.081024105170677443 0.29569314502534411 -0.0046756568857852154 0.12635991971343757 0.0042216657380834757 -0.065345004487960115 -0.058507986453271682 -0.074989883448626546
leaf_weight=153 145 36 151 218 23 104 345 22 27 21 66 131 183 318 618 123 209 26 145 21 34 25 139 210 31 37
leaf_count=153 145 36 151 218 23 104 345 22 27 21 66 131 183 318 618 123 209 26 145 21 34 25 139 210 31 37
internal_value=-1.33223e-10 0.101034 -0.0352986 0.0789839 0.268984 -0.011237 -0.0614733 0.122163 0.233266 0.0530252 0.11462 -0.0495061 0.00936816 0.0479533 -0.0249322 0.0198716 -0.0552949 -0.0203658 -0.0772612 0.268281 -0.0300697 0.104075 -0.00385837 -0.0717491 -0.04109 -0.0875599
internal_weight=3561 922 2639 815 107 1375 1264 306 84 509 284 719 549 463 826 306 554 644 545 48 165 46 243 355 182 190
internal_count=3561 922 2639 815 107 1375 1264 306 84 509 284 719 549 463 826 306 554 644 545 48 165 46 243 355 182 190
is_linear=0
shrinkage=0.01


Tree=21
num_leaves=28
num_cat=0
split_feature=0 0 0 0 0 17 3 0 9 8 0 9 14 0 11 1 9 16 0 9 16 5 0 3 9 4 7
split_gain=124503 30977.7 19196.4 7624.93 5425.36 4898.21 2013.25 1786.46 1296.65 1165.45 1151.18 947.391 702.471 605.261 583.973 577.907 544.454 530.725 491.828 381.496 275.931 274.96 220.75 187.985 166.764 156.734 121.938
threshold=16.625000000000004 34.375000000000007 10.458500000000003 23.041500000000003 6.6250000000000009 45.500000000000007 1.5015000000000003 12.375000000000002 0.59950000000000003 10.500000000000002 37.791500000000006 0.26750000000000007 0.58400000000000007 20.625000000000004 -0.66499999999999992 3.4800000000000004 1.8495000000000001 -1.0000000180025095e-35 4.8750000000000009 0.67300000000000015 0.68300000000000016 1.5000000000000002 8.1250000000000018 0.70400000000000007 -0.022499999999999996 0.60100000000000009 2.5000000000000004
decision_type=2 2 2 2 2 2 2 2 2 2 2 2 2 2 2 2 2 2 2 2 2 2 2 2 2 2 2
left_child=2 3 4 9 8 10 17 19 18 13 -3 23 -8 -2 -13 22 -11 -5 -1 24 -17 -12 -6 -9 -4 -21 -10
right_child=1 5 7 6 15 -7 12 11 26 16 21 14 -14 -15 -16 20 -18 -19 -20 25 -22 -23 -24 -25 -26 -27 -28
leaf_value=-0.081340534661394487 0.043812009357340892 0.18741994628021794 -0.032435435365057656 0.081007722763246623 -0.050571418483542588 0.40363575236363847 0.14976726005258767 -0.01758198130254944 -0.032353241547942162 0.078179333013148958 0.24448996402599193 0.0044446765741967889 0.22880695478482679 0.073261179408744756 0.034078356030016292 -0.034732895449940432 0.13531780594871159 0.12209606997648274 -0.065476889598075697 -0.015614420219703957 -0.020011490224527997 0.29273621332077754 -0.036835512466326707 0.0045436611463082954 -0.014524678385512715 0.013252442296474211 0.0025663152933120725
leaf_weight=384 263 31 72 38 234 22 23 48 20 81 27 91 22 95 247 295 21 182 398 27 224 21 234 192 187 62 20
leaf_count=384 263 31 72 38 234 22 23 48 20 81 27 91 22 95 247 295 21 182 398 27 224 21 234 192 187 62 20
internal_value=1.39858e-10 0.107595 -0.0324949 0.0847376 -0.0514496 0.27167 0.127465 0.00453441 -0.0704262 0.060123 0.23492 0.0153119 0.188409 0.0516267 0.0261001 -0.0356454 0.0899431 0.114999 -0.0732667 -0.0133661 -0.0283791 0.265598 -0.0437035 0.000118533 -0.0195037 0.00449508 -0.0148935
internal_weight=3561 826 2735 725 1809 101 265 926 822 460 79 578 45 358 338 987 102 220 782 348 519 48 468 240 259 89 40
internal_count=3561 826 2735 725 1809 101 265 926 822 460 79 578 45 358 338 987 102 220 782 348 519 48 468 240 259 89 40
is_linear=0
shrinkage=0.01


Tree=22
num_leaves=27
num_cat=0
split_feature=0 0 0 0 0 0 0 9 8 0 3 9 9 8 16 9 0 9 1 10 7 9 9 4 14 0
split_gain=122036 32805.9 15969.7 8772.31 4852.01 3727.81 2293.56 2186.71 1278.23 1156.81 1124.82 832.181 780.86 711.99 661.815 624.341 441.544 405.674 301.274 271.134 269.543 265.289 221.688 190.921 183.74 57.8988
threshold=15.625000000000002 33.583500000000008 8.3750000000000018 22.041500000000003 45.750000000000007 11.541500000000001 5.541500000000001 2.2415000000000007 15.500000000000002 37.791500000000006 1.3305000000000002 0.26750000000000007 0.51200000000000012 -1.4999999999999998 0.68300000000000016 1.2080000000000002 7.3750000000000009 -0.015499999999999998 1.7030000000000001 0.023500000000000004 6.5000000000000009 1.7080000000000002 0.46700000000000003 -0.20049999999999998 0.49100000000000005 3.1250000000000004
decision_type=2 2 2 2 2 2 2 2 2 2 2 2 2 2 2 2 2 2 2 2 2 2 2 2 2 2
left_child=2 3 6 8 9 15 18 10 13 22 -5 19 16 -2 -13 17 -8 -4 25 -7 -14 -10 -3 -20 -11 -1
right_child=1 4 5 7 -6 11 12 -9 21 24 -12 14 20 -15 -16 -17 -18 -19 23 -21 -22 -23 -24 -25 -26 -27
leaf_value=-0.093100789701434941 0.028191621453080275 0.16445475574396551 -0.041763050372502011 0.10079118624122607 0.38562270319461822 0.0048426473786042428 -0.06116735067056573 0.20936273422241211 0.078870142663226409 0.2422227464403425 0.14823843300399872 0.0063511264403757544 -0.035947191653815845 0.055030791870275743 0.034712114723494454 0.025524238062941511 -0.042748646349712996 -0.023564419734023817 -0.080876556491029664 -0.015234606282173338 -0.004347624384305057 0.12284389288529106 0.21153847098350526 -0.065262242268833245 0.28405459540230887 -0.081653792756235508
leaf_weight=71 146 20 155 216 25 127 345 25 34 21 65 206 131 306 137 23 209 584 116 143 34 23 20 241 21 117
leaf_count=71 146 20 155 216 25 127 345 25 34 21 65 206 131 306 137 23 209 584 116 143 34 23 20 241 21 117
internal_value=3.19652e-11 0.0990403 -0.0346022 0.0774268 0.263666 -0.0110163 -0.0602592 0.11974 0.051989 0.226484 0.111767 0.00734153 -0.0485314 0.0463615 0.017679 -0.0257846 -0.0542188 -0.0273815 -0.0757312 -0.00579086 -0.0294358 0.0966139 0.187997 -0.0703358 0.263139 -0.0859769
internal_weight=3561 922 2639 815 107 1375 1264 306 509 82 281 613 719 452 343 762 554 739 545 270 165 57 40 357 42 188
internal_count=3561 922 2639 815 107 1375 1264 306 509 82 281 613 719 452 343 762 554 739 545 270 165 57 40 357 42 188
is_linear=0
shrinkage=0.01


Tree=23
num_leaves=27
num_cat=0
split_feature=0 0 0 0 0 17 3 0 9 8 0 9 14 0 11 1 9 16 0 9 16 5 9 0 3 7
split_gain=119638 29753.3 18447.1 7328.99 5210 4754.88 1944.27 1716.49 1256.91 1122.12 1098.72 911.344 688.36 584.482 569.807 559.199 523.071 520.966 473.67 369.816 271.931 267.416 225.826 212.549 183.418 118.391
threshold=16.625000000000004 34.375000000000007 10.458500000000003 23.041500000000003 6.6250000000000009 45.500000000000007 1.5015000000000003 12.375000000000002 0.59950000000000003 10.500000000000002 37.791500000000006 0.26750000000000007 0.58400000000000007 20.625000000000004 -0.66499999999999992 3.4800000000000004 1.8495000000000001 -1.0000000180025095e-35 4.8750000000000009 1.0610000000000002 0.68300000000000016 1.5000000000000002 -0.022499999999999996 7.3750000000000009 0.70400000000000007 2.5000000000000004
decision_type=2 2 2 2 2 2 2 2 2 2 2 2 2 2 2 2 2 2 2 2 2 2 2 2 2 2
left_child=2 3 4 9 8 10 17 19 18 13 -3 24 -8 -2 -13 23 -11 -5 -1 22 -17 -12 -4 -6 -9 -10
right_child=1 5 7 6 15 -7 12 11 25 16 21 14 -14 -15 -16 20 -18 -19 -20 -21 -22 -23 -24 -25 -26 -27
leaf_value=-0.079750990706185507 0.04292257037778658 0.18365818463986919 -0.031843820054394505 0.079033148908301404 -0.055968687567783865 0.39629223102873024 0.14660023089984189 -0.017375749684870243 -0.031559827774763106 0.076668775913156115 0.23921784047727232 0.0041997574122397451 0.22484202222390606 0.071861833482980725 0.033471808193424935 -0.034107325119108467 0.13267398868288313 0.11974197032687428 -0.064182948273648718 0.020461793939272561 -0.019493015501980803 0.28679762931097125 -0.011708099688214015 -0.039405715063818403 0.0044794684941492349 0.0028481559157371521
leaf_weight=384 263 31 72 38 98 22 23 48 20 81 27 91 22 95 247 295 21 182 398 30 224 21 246 370 192 20
leaf_count=384 263 31 72 38 98 22 23 48 20 81 27 91 22 95 247 295 21 182 398 30 224 21 246 370 192 20
internal_value=2.02249e-10 0.105472 -0.0318537 0.083071 -0.0504348 0.266272 0.124961 0.00444562 -0.0690309 0.0589388 0.230064 0.0150099 0.184852 0.050602 0.0255909 -0.0349475 0.0881993 0.11271 -0.0718276 -0.0131008 -0.0277998 0.260034 -0.0162671 -0.042874 0.000108425 -0.0143558
internal_weight=3561 826 2735 725 1809 101 265 926 822 460 79 578 45 358 338 987 102 220 782 348 519 48 318 468 240 40
internal_count=3561 826 2735 725 1809 101 265 926 822 460 79 578 45 358 338 987 102 220 782 348 519 48 318 468 240 40
is_linear=0
shrinkage=0.01


Tree=24
num_leaves=28
num_cat=0
split_feature=0 0 0 0 0 0 0 9 8 0 3 9 9 8 8 16 0 9 9 0 7 9 10 9 9 15 9
split_gain=117268 31520.3 15350.6 8423.73 4691.82 3576.56 2201.2 2128.67 1231.5 1107.65 1026.24 764.718 754.077 694.342 568.67 556.91 421.679 421.38 310.039 293.615 263.348 254.631 243.069 218.143 209.065 182.619 27.9027
threshold=15.625000000000002 33.583500000000008 8.3750000000000018 22.041500000000003 45.750000000000007 11.625000000000002 5.541500000000001 2.3010000000000006 15.500000000000002 37.791500000000006 1.3305000000000002 0.26750000000000007 0.51200000000000012 -1.4999999999999998 5.5000000000000009 0.68300000000000016 7.3750000000000009 1.2080000000000002 -0.015499999999999998 3.6250000000000004 6.5000000000000009 1.7080000000000002 0.023500000000000004 0.46700000000000003 0.11700000000000001 -0.68299999999999994 0.092500000000000013
decision_type=2 2 2 2 2 2 2 2 2 2 2 2 2 2 2 2 2 2 2 2 2 2 2 2 2 2 2
left_child=2 3 6 8 9 14 19 10 13 23 -5 22 16 -2 18 -13 -8 -16 -4 26 -14 -10 -7 -3 -21 -11 -1
right_child=1 4 5 7 -6 11 12 -9 21 25 -12 15 20 -15 17 -17 -18 -19 -20 24 -22 -23 -24 -25 -26 -27 -28
leaf_value=-0.090555220827271674 0.027506183003305061 0.16087722334265711 -0.043641764707583235 0.09956413779373563 0.37838049005614594 0.0050314089667702474 -0.059964425096693245 0.21212807980450715 0.077390982473597811 0.235888409614563 0.14457150107983385 0.0071226237441913863 -0.035255821201637498 0.054010631798163934 -0.015827570957735407 0.033553364335146163 -0.041964820100074754 0.031271454039074123 -0.026142218842078881 -0.076779466189089277 -0.0040215386976214015 0.12047237655390865 -0.014113624201156199 0.20758298206329348 -0.062361481888460989 0.27763979565013541 -0.081632789165254613
leaf_weight=79 146 20 133 218 25 126 345 22 34 20 66 199 131 306 199 133 209 21 424 210 34 23 140 20 193 22 63
leaf_count=79 146 20 133 218 25 126 345 22 34 20 66 199 131 306 199 133 209 21 424 210 34 23 140 20 193 22 63
internal_value=4.45739e-11 0.0970861 -0.0339194 0.0759004 0.258454 -0.0107953 -0.0590742 0.117364 0.0509731 0.221891 0.110024 0.00758871 -0.047585 0.0454495 -0.0249442 0.0177108 -0.053174 -0.0113318 -0.0303207 -0.0742315 -0.0288197 0.0947747 -0.00504492 0.18423 -0.0698746 0.257758 -0.0865967
internal_weight=3561 922 2639 815 107 1375 1264 306 509 82 284 598 719 452 777 332 554 220 557 545 165 57 266 40 403 42 142
internal_count=3561 922 2639 815 107 1375 1264 306 509 82 284 598 719 452 777 332 554 220 557 545 165 57 266 40 403 42 142
is_linear=0
shrinkage=0.01


Tree=25
num_leaves=26
num_cat=0
split_feature=0 0 0 0 14 0 9 0 9 8 17 9 16 9 11 1 9 0 9 16 0 3 9 4 7
split_gain=114964 28589.5 17727.9 8808.22 5395.48 5002.91 2607.03 1647.79 1218.06 1080.32 903.208 876.819 712.665 573.249 556.044 540.534 502.425 456.049 358.924 267.607 203.431 178.979 155.266 151.005 115.015
threshold=16.625000000000004 36.542000000000009 10.458500000000003 23.041500000000003 0.52250000000000008 6.6250000000000009 2.411 12.375000000000002 0.59950000000000003 10.500000000000002 24.500000000000004 0.26750000000000007 0.68300000000000016 -0.046999999999999993 -0.66499999999999992 3.4800000000000004 1.8495000000000001 4.8750000000000009 0.67300000000000015 0.68300000000000016 8.1250000000000018 0.70400000000000007 -0.022499999999999996 0.60100000000000009 2.5000000000000004
decision_type=2 2 2 2 2 2 2 2 2 2 2 2 2 2 2 2 2 2 2 2 2 2 2 2 2
left_child=2 3 5 9 12 8 10 18 17 13 -5 21 -3 -2 -13 20 -11 -1 22 -17 -7 -9 -4 -20 -10
right_child=1 4 7 6 -6 15 -8 11 24 16 -12 14 -14 -15 -16 19 -18 -19 23 -21 -22 -23 -24 -25 -26
leaf_value=-0.078191060114186264 0.026381430068030589 0.2084411457926035 -0.031263447455841947 0.10146327743265364 0.42762593541826521 -0.048650342791190009 0.23813314557075502 -0.017177536925300958 -0.030796800911426545 0.075186612141537087 0.13784379377745201 0.0039576946551000683 0.28453586959838867 0.056494261269336168 0.032874052434375411 -0.033493946526515279 0.13007540566580636 -0.062915324710646467 -0.01524595481378061 -0.018996297207374613 -0.035464254348323891 0.0044116090401075782 -0.013981152084023559 0.013088328828734737 0.0031171231567859647
leaf_weight=384 82 32 72 135 21 234 20 48 20 81 138 91 20 276 247 295 21 398 27 224 234 192 187 62 20
leaf_count=384 82 32 72 135 21 234 20 48 20 81 138 91 20 276 247 295 21 398 27 224 234 192 187 62 20
internal_value=-1.11042e-11 0.103391 -0.0312252 0.0850731 0.292342 -0.0494406 0.127927 0.00435955 -0.0676633 0.0577769 0.119853 0.0147103 0.237708 0.0495969 0.0250889 -0.0342641 0.0864872 -0.0704165 -0.0128322 -0.0272368 -0.0420573 9.37798e-05 -0.0187855 0.00449253 -0.0138398
internal_weight=3561 826 2735 753 73 1809 293 926 822 460 273 578 52 358 338 987 102 782 348 519 468 240 259 89 40
internal_count=3561 826 2735 753 73 1809 293 926 822 460 273 578 52 358 338 987 102 782 348 519 468 240 259 89 40
is_linear=0
shrinkage=0.01


Tree=26
num_leaves=27
num_cat=0
split_feature=0 0 0 0 17 0 0 9 10 9 3 8 9 9 16 9 3 0 8 0 1 7 4 13 15 0
split_gain=112688 29639.9 15475.1 7627.71 4568.88 3806.45 2113.94 2046.42 1216.07 1075.84 1059.29 898.383 741.275 727.861 688.552 561.843 512.759 405.776 399.136 359.551 286.348 257.052 184.842 131.514 110.005 55.4241
threshold=15.875000000000002 33.583500000000008 8.3750000000000018 22.041500000000003 45.500000000000007 11.958500000000003 5.541500000000001 2.2415000000000007 0.045500000000000006 0.28150000000000003 1.3305000000000002 1.0000000180025095e-35 -0.12749999999999997 0.51200000000000012 0.68300000000000016 0.0085000000000000023 1.2665000000000002 7.3750000000000009 2.5000000000000004 20.458500000000004 1.7030000000000001 6.5000000000000009 -0.20049999999999998 5.5000000000000009 0.68300000000000016 3.1250000000000004
decision_type=2 2 2 2 2 2 2 2 2 2 2 2 2 2 2 2 2 2 2 2 2 2 2 2 2 2
left_child=2 3 6 9 8 15 20 10 -3 19 -5 -11 23 17 -14 24 -10 -8 -17 -2 25 -15 -22 -7 -4 -1
right_child=1 4 5 7 -6 12 13 -9 16 11 -12 -13 14 21 -16 18 -18 -19 -20 -21 22 -23 -24 -25 -26 -27
leaf_value=-0.089719998735777087 0.021338397689656285 0.15728473748849786 -0.035453919036104189 0.096661268929364511 0.37832067396329799 0.00073642463982105254 -0.058800534701865657 0.20172570114135741 0.26760111318315782 0.034712317056593396 0.14270574885148268 0.071344213563029238 0.0047814917724047388 -0.034570899130278873 0.029168651066175322 -0.027326361330996606 0.20897366367853604 -0.041143589434726388 -0.011564069397371672 0.062326678564915299 -0.077872905304719672 -0.0037122059744947094 -0.062509168810462312 -0.02211497387081823 -0.056134976337273275 -0.078520308946951833
leaf_weight=71 121 23 151 216 23 40 345 25 35 93 65 239 266 131 205 307 26 209 337 26 116 34 241 68 31 117
leaf_count=71 121 23 151 216 23 40 345 25 35 93 65 239 266 131 205 307 26 209 337 26 116 34 241 68 31 117
internal_value=-7.27065e-11 0.0973073 -0.0325208 0.0760252 0.253442 -0.00968179 -0.0579076 0.115026 0.219249 0.0511105 0.107312 0.0610829 0.0099777 -0.0466484 0.0153959 -0.0234625 0.242612 -0.0521393 -0.0190781 0.028588 -0.0727614 -0.0282121 -0.0675013 -0.0136515 -0.0389765 -0.08275
internal_weight=3561 892 2669 785 107 1405 1264 306 84 479 281 332 579 719 471 826 61 554 644 147 545 165 357 108 182 188
internal_count=3561 892 2669 785 107 1405 1264 306 84 479 281 332 579 719 471 826 61 554 644 147 545 165 357 108 182 188
is_linear=0
shrinkage=0.01


Tree=27
num_leaves=25
num_cat=0
split_feature=0 0 0 0 14 0 9 0 9 8 17 9 16 9 11 1 9 0 9 16 9 0 3 7
split_gain=110460 27515.3 17046 8456.76 5272.6 4802.35 2519.15 1577.85 1180.79 1045.26 881.583 849.167 698.722 554.463 543.255 522.904 489.721 439.21 348.974 262.579 211.105 195.553 174.616 111.671
threshold=16.625000000000004 36.542000000000009 10.458500000000003 23.041500000000003 0.52250000000000008 6.6250000000000009 2.411 12.375000000000002 0.59950000000000003 10.500000000000002 24.500000000000004 0.26750000000000007 0.68300000000000016 -0.046999999999999993 -0.66499999999999992 3.4800000000000004 1.8495000000000001 4.8750000000000009 1.0610000000000002 0.68300000000000016 -0.022499999999999996 7.3750000000000009 0.70400000000000007 2.5000000000000004
decision_type=2 2 2 2 2 2 2 2 2 2 2 2 2 2 2 2 2 2 2 2 2 2 2 2
left_child=2 3 5 9 12 8 10 18 17 13 -5 22 -3 -2 -13 21 -11 -1 20 -17 -4 -7 -9 -10
right_child=1 4 7 6 -6 15 -8 11 23 16 -12 14 -14 -15 -16 19 -18 -19 -20 -21 -22 -23 -24 -25
leaf_value=-0.076663175898138439 0.025750768449975224 0.20372528150677682 -0.03067290917452839 0.099260138467506129 0.42044729414440341 -0.053825110239642003 0.23369799423217774 -0.017028762164215248 -0.030037658291868868 0.073712672561315098 0.13520250075304394 0.0037417649911655176 0.2790719141960144 0.05536606868175601 0.032323664773692966 -0.032886172810348419 0.12790305359022958 -0.061672107866735909 0.020066426215072472 -0.018525367053225637 -0.011204576168239602 -0.037938122974859705 0.0042955982597777621 0.0033795321881771091
leaf_weight=384 82 32 72 135 21 98 20 48 20 81 138 91 20 276 247 295 21 398 30 224 246 370 192 20
leaf_count=384 82 32 72 135 21 98 20 48 20 81 138 91 20 276 247 295 21 398 30 224 246 370 192 20
internal_value=-2.65418e-11 0.101345 -0.0306074 0.0833749 0.286713 -0.048469 0.125365 0.00428622 -0.0663228 0.0566289 0.117429 0.0144149 0.232705 0.0485827 0.0246285 -0.0335999 0.0848695 -0.0690335 -0.0125367 -0.0266881 -0.0156125 -0.0412649 3.07262e-05 -0.0133291
internal_weight=3561 826 2735 753 73 1809 293 926 822 460 273 578 52 358 338 987 102 782 348 519 318 468 240 40
internal_count=3561 826 2735 753 73 1809 293 926 822 460 273 578 52 358 338 987 102 782 348 519 318 468 240 40
is_linear=0
shrinkage=0.01


Tree=28
num_leaves=28
num_cat=0
split_feature=0 0 0 0 0 0 0 3 9 11 9 9 9 0 9 16 9 11 3 0 9 9 14 10 7 0 9
split_gain=108298 29173.8 14175.1 7138.76 5045.72 3295.37 2028.74 1634.28 1388.78 1181.02 1163.58 743.676 702.885 689.287 682.264 623.243 586.812 568.627 463.626 387.508 373.501 279.942 258.608 253.224 251.151 163.516 108.235
threshold=15.625000000000002 32.500000000000007 8.3750000000000018 22.041500000000003 45.750000000000007 11.541500000000001 5.541500000000001 1.3305000000000002 0.77100000000000013 0.55150000000000021 1.5855000000000004 0.26750000000000007 0.51200000000000012 36.041500000000006 -0.046999999999999993 0.68300000000000016 1.2080000000000002 -0.95799999999999985 1.2665000000000002 7.3750000000000009 -0.015499999999999998 0.21150000000000002 0.52850000000000008 0.023500000000000004 6.5000000000000009 4.2085000000000008 0.46000000000000008
decision_type=2 2 2 2 2 2 2 2 2 2 2 2 2 2 2 2 2 2 2 2 2 2 2 2 2 2 2
left_child=2 3 6 10 8 16 21 17 13 -9 14 23 19 -3 -2 -13 20 -5 -10 -8 -4 25 -12 -7 -14 -1 -23
right_child=1 4 5 7 -6 11 12 9 18 -11 22 15 24 -15 -16 -17 -18 -19 -20 -21 -22 26 -24 -25 -26 -27 -28
leaf_value=-0.082554807782173154 0.0196751663932106 0.12873467857638995 -0.039608262319718639 0.1233415034127518 0.36568601088523861 0.0047468128985190018 -0.057644331745263455 0.20659714288711548 0.27625067624178801 0.12346383889516195 0.07108186261994498 0.0056644418690968493 -0.033907059749005403 0.20822344997525213 0.050222582756591749 0.033186561258604926 0.025482209026813508 0.086700352105745102 0.21490578608853475 -0.040389429788555253 -0.022146187037235917 -0.064175491062284429 0.11868327507972717 -0.014655982650738289 -0.0034046626178657309 -0.069503085516469998 -0.043118315643320484
leaf_weight=190 91 24 155 58 25 127 345 25 22 54 21 206 131 20 372 137 23 157 28 209 584 131 25 143 34 194 30
leaf_count=190 91 24 155 58 25 127 345 25 22 54 21 206 131 20 372 137 23 157 28 209 584 131 25 143 34 194 30
internal_value=-6.48447e-11 0.0932993 -0.0325964 0.0716448 0.239421 -0.0103753 -0.0567688 0.110877 0.20584 0.149772 0.0489844 0.00688495 -0.0457389 0.164866 0.0442187 0.0166572 -0.0242606 0.0965849 0.241898 -0.0511348 -0.0258087 -0.0713203 0.0969522 -0.00552948 -0.0276217 -0.075961 -0.0602518
internal_weight=3561 922 2639 803 119 1375 1264 294 94 79 509 613 719 44 463 343 762 215 50 554 739 545 46 270 165 384 161
internal_count=3561 922 2639 803 119 1375 1264 294 94 79 509 613 719 44 463 343 762 215 50 554 739 545 46 270 165 384 161
is_linear=0
shrinkage=0.01


Tree=29
num_leaves=28
num_cat=0
split_feature=0 0 0 0 0 13 3 15 0 9 8 9 9 14 0 11 16 1 9 0 9 16 0 3 4 9 7
split_gain=106145 26468.2 16380.4 6485.31 4611.66 4548.26 1809.82 1712.67 1515.92 1142.35 1011.85 815.899 712.651 669.212 544.324 530.889 506.362 505.975 470.957 422.707 339.071 258.749 186.953 170.544 145.658 144.519 108.652
threshold=16.625000000000004 34.375000000000007 10.458500000000003 23.041500000000003 6.6250000000000009 7.5000000000000009 1.5015000000000003 1.0000000180025095e-35 12.375000000000002 0.59950000000000003 10.500000000000002 0.26750000000000007 0.46700000000000003 0.58400000000000007 20.625000000000004 -0.66499999999999992 -1.0000000180025095e-35 3.4800000000000004 1.8495000000000001 4.9585000000000008 0.67300000000000015 0.68300000000000016 8.1250000000000018 0.70400000000000007 0.60100000000000009 -0.022499999999999996 2.5000000000000004
decision_type=2 2 2 2 2 2 2 2 2 2 2 2 2 2 2 2 2 2 2 2 2 2 2 2 2 2 2
left_child=2 3 4 10 9 7 16 12 20 19 14 23 -3 -8 -2 -13 -5 22 -12 -1 25 -19 -6 -10 -22 -4 -11
right_child=1 5 8 6 17 -7 13 -9 11 26 18 15 -14 -15 -16 -17 -18 21 -20 -21 24 -23 -24 -25 -26 -27 -28
leaf_value=-0.074896669457455975 0.040189841665015928 0.19940821540355683 -0.030112181205250738 0.072602042887163792 -0.046802443816111643 0.38605793523788451 0.13769032361714736 0.14680007045467697 -0.016829122231962781 -0.029365972191095352 0.072362046992337267 0.0034937486601072354 0.27349830099054284 0.21483624740080401 0.068117254948145467 0.031748475431792648 0.11273621382621618 -0.032295867467330673 0.12550411303838094 -0.060189947703232369 -0.014834636438775946 -0.018040198239458342 -0.034161671430636677 0.0042451204419679317 0.012993490885823005 -0.01343875021464565 0.0035964716821908949
leaf_weight=398 263 20 72 38 234 20 23 24 48 20 81 91 37 22 95 247 182 295 21 384 27 224 234 192 62 187 20
leaf_count=398 263 20 72 38 234 20 23 24 48 20 81 91 37 22 95 247 182 295 21 384 27 224 234 192 62 187 20
internal_value=3.19353e-11 0.0993463 -0.0300037 0.0782181 -0.047513 0.25101 0.117623 0.217664 0.00420195 -0.0650088 0.0555173 0.0141299 0.247502 0.175406 0.0476007 0.0241414 0.105804 -0.0329421 0.0833031 -0.067675 -0.0122875 -0.0261431 -0.0404821 3.02719e-05 0.00455125 -0.0180738 -0.0128848
internal_weight=3561 826 2735 725 1809 101 265 81 926 822 460 578 57 45 358 338 220 987 102 782 348 519 468 240 89 259 40
internal_count=3561 826 2735 725 1809 101 265 81 926 822 460 578 57 45 358 338 220 987 102 782 348 519 468 240 89 259 40
is_linear=0
shrinkage=0.01


Tree=30
num_leaves=29
num_cat=0
split_feature=0 0 0 0 17 0 0 9 3 11 8 9 1 8 11 3 8 16 9 9 9 9 4 10 1 0 3 9
split_gain=104067 28043.3 13620 6851.65 4918.5 3162.24 1947.92 1663.74 1574.86 1160.5 1122.87 680.502 678.81 649.747 557.414 556.885 535.745 522.064 396.623 286.385 272.857 229.469 228.959 226.861 219.065 158.518 119.13 104.189
threshold=15.625000000000002 32.500000000000007 8.3750000000000018 22.041500000000003 45.500000000000007 11.625000000000002 5.541500000000001 0.77100000000000013 1.3305000000000002 0.55150000000000021 15.500000000000002 0.26750000000000007 3.3535000000000008 -1.4999999999999998 -0.95799999999999985 1.2665000000000002 5.5000000000000009 0.68300000000000016 1.2080000000000002 -0.015499999999999998 0.21150000000000002 1.7080000000000002 1.4405000000000003 0.023500000000000004 4.7270000000000012 4.2085000000000008 0.93050000000000022 0.46000000000000008
decision_type=2 2 2 2 2 2 2 2 2 2 2 2 2 2 2 2 2 2 2 2 2 2 2 2 2 2 2 2
left_child=2 3 6 10 7 16 20 26 14 -10 13 23 22 -2 -5 -9 19 -13 -18 -4 25 -12 -8 -7 -14 -1 -3 -22
right_child=1 4 5 8 -6 11 12 15 9 -11 21 17 24 -15 -16 -17 18 -19 -20 -21 27 -23 -24 -25 -26 -27 -28 -29
leaf_value=-0.080980292790814451 0.025395729493681497 0.13673822350800038 -0.041497079810701817 0.12112453281879425 0.36606662216393843 0.0049317836785127247 -0.054992578708295582 0.26997175557272779 0.20317367129325867 0.12076558734531757 0.073350336867220256 0.0064117834436234521 -0.034622537179990913 0.05103492301054835 0.084846450107492463 0.20690234056540899 -0.014624957073873013 0.032002269921446204 0.031069579266366505 -0.0246783166860652 -0.062828552381682945 0.11424774807432425 -0.034738956196950034 -0.013563963802531363 -0.000929665354390939 -0.068129589302638141 0.17125338095426559 -0.042168670490384107
leaf_weight=190 146 20 133 58 23 126 395 28 25 54 34 199 238 306 157 28 199 133 21 424 131 23 65 140 21 194 20 30
leaf_count=190 146 20 133 58 23 126 395 28 25 54 34 199 238 306 157 28 199 133 21 424 131 23 65 140 21 194 20 30
internal_value=5.73832e-11 0.0914585 -0.0319533 0.0702277 0.234721 -0.0101716 -0.0556478 0.203253 0.108663 0.146844 0.0480276 0.00711488 -0.0448398 0.0427532 0.0946331 0.238437 -0.0234757 0.0166634 -0.0102632 -0.0286943 -0.0699064 0.0898528 -0.0521307 -0.00480282 -0.0318907 -0.074488 0.153996 -0.0589789
internal_weight=3561 922 2639 803 119 1375 1264 96 294 79 509 598 719 452 215 56 777 332 220 557 545 57 460 266 259 384 40 161
internal_count=3561 922 2639 803 119 1375 1264 96 294 79 509 598 719 452 215 56 777 332 220 557 545 57 460 266 259 384 40 161
is_linear=0
shrinkage=0.01


Tree=31
num_leaves=26
num_cat=0
split_feature=0 0 0 0 14 0 9 0 9 8 17 9 16 9 11 1 9 0 9 16 0 3 4 9 7
split_gain=101997 25510.5 15742 7781.5 5131.13 4434.35 2403.01 1455.23 1107.61 975.087 855.429 785.017 688.916 529.553 518.072 485.665 452.926 405.113 327.662 253.925 181.868 166.421 141.898 139.764 105.911
threshold=16.625000000000004 36.542000000000009 10.458500000000003 23.041500000000003 0.52250000000000008 6.6250000000000009 2.411 12.375000000000002 0.59950000000000003 10.500000000000002 24.500000000000004 0.26750000000000007 0.68300000000000016 -0.046999999999999993 -0.66499999999999992 3.4800000000000004 1.8495000000000001 4.8750000000000009 0.67300000000000015 0.68300000000000016 7.3750000000000009 0.70400000000000007 0.60100000000000009 -0.022499999999999996 2.5000000000000004
decision_type=2 2 2 2 2 2 2 2 2 2 2 2 2 2 2 2 2 2 2 2 2 2 2 2 2
left_child=2 3 5 9 12 8 10 18 17 13 -5 21 -3 -2 -13 20 -11 -1 23 -17 -7 -9 -20 -4 -10
right_child=1 4 7 6 -6 15 -8 11 24 16 -12 14 -14 -15 -16 19 -18 -19 22 -21 -22 -23 -24 -25 -26
leaf_value=-0.073685443157252548 0.024342001397673771 0.19381863366812468 -0.029562017017354569 0.094713195928268962 0.40780072643643339 -0.051788165964642349 0.2261677007675171 -0.016636621787523228 -0.028679247260093691 0.070973284174630669 0.13011837970735371 0.0032712886900037198 0.26863470029830933 0.053284429380724183 0.031182862233053818 -0.031722349261328324 0.12308814219066076 -0.05928803762439732 -0.01461624738242891 -0.017600168598084047 -0.036467172035897104 0.0041813393972794681 0.012850402538334169 -0.013165143578242323 0.003864739999175072
leaf_weight=384 82 32 72 135 21 98 20 48 20 81 138 91 20 276 247 295 21 398 27 224 370 192 62 187 20
leaf_count=384 82 32 72 135 21 98 20 48 20 81 138 91 20 276 247 295 21 398 27 224 370 192 62 187 20
internal_value=-5.94947e-11 0.0973861 -0.0294117 0.0800826 0.275873 -0.0465764 0.120362 0.00412079 -0.0637325 0.0544266 0.11261 0.0138479 0.222594 0.0466552 0.0236682 -0.0322884 0.0817028 -0.0663579 -0.0120352 -0.0256272 -0.0396754 1.77472e-05 0.00451782 -0.0177233 -0.0124073
internal_weight=3561 826 2735 753 73 1809 293 926 822 460 273 578 52 358 338 987 102 782 348 519 468 240 89 259 40
internal_count=3561 826 2735 753 73 1809 293 926 822 460 273 578 52 358 338 987 102 782 348 519 468 240 89 259 40
is_linear=0
shrinkage=0.01


Tree=32
num_leaves=28
num_cat=0
split_feature=0 0 0 0 0 0 3 0 9 0 13 14 9 9 9 16 9 0 9 0 14 7 10 9 9 15 9
split_gain=100001 26979.9 13092 7157.55 4273.46 3033.76 1886.27 1869.34 1086.92 938.174 723.329 688.924 684.72 660.738 649.428 597.251 559.065 361.969 354.062 266.548 249.623 243.039 241.353 193.79 182.548 173.17 26.3902
threshold=15.625000000000002 33.583500000000008 8.3750000000000018 22.041500000000003 45.750000000000007 11.541500000000001 1.5015000000000003 5.541500000000001 1.5855000000000004 37.791500000000006 8.5000000000000018 0.58400000000000007 0.26750000000000007 0.51200000000000012 -0.046999999999999993 0.68300000000000016 1.2080000000000002 7.3750000000000009 -0.015499999999999998 3.6250000000000004 0.52850000000000008 6.5000000000000009 0.023500000000000004 0.11700000000000001 0.46700000000000003 -0.68299999999999994 0.092500000000000013
decision_type=2 2 2 2 2 2 2 2 2 2 2 2 2 2 2 2 2 2 2 2 2 2 2 2 2 2 2
left_child=2 3 7 8 9 16 10 19 14 24 -5 -8 22 17 -2 -14 18 -9 -4 26 -10 -15 -7 -21 -3 -11 -1
right_child=1 4 5 6 -6 12 11 13 20 25 -12 -13 15 21 -16 -17 -18 -19 -20 23 -22 -23 -24 -25 -26 -27 -28
leaf_value=-0.084152771068524715 0.018524202181251496 0.14803008145093918 -0.038236966050440267 0.092277065301195102 0.35340278253555296 0.0047138046146935134 0.12733434851169587 -0.055488708169995869 0.068019721820240936 0.21576609754562376 0.15353245825994583 0.20157309780120852 0.005209257852023883 -0.032583114766508679 0.048327462672911867 0.032151366949734028 0.025262289241604181 -0.038812105192949899 -0.021235385119742777 -0.071018198615028741 0.11478691189289092 -0.0025773500431986417 -0.014228743476259124 -0.057136892050195849 0.19075569865107536 0.25642298741774128 -0.075475534106057784
leaf_weight=79 91 20 155 235 25 127 25 345 21 20 21 25 206 131 372 137 23 209 584 210 25 34 143 193 20 22 63
leaf_count=79 91 20 155 235 25 127 25 345 21 20 21 25 206 131 372 137 23 209 584 210 25 34 143 193 20 22 63
internal_value=5.77467e-12 0.089654 -0.0313228 0.0700535 0.238948 -0.00996755 0.108274 -0.0545535 0.0470758 0.204053 0.0973019 0.164454 0.00659345 -0.0439657 0.0424698 0.0159704 -0.0232902 -0.0491974 -0.0248013 -0.0685216 0.0934367 -0.0264001 -0.00531873 -0.0643703 0.169393 0.237063 -0.080303
internal_weight=3561 922 2639 815 107 1375 306 1264 509 82 256 50 613 719 463 343 762 554 739 545 46 165 270 403 40 42 142
internal_count=3561 922 2639 815 107 1375 306 1264 509 82 256 50 613 719 463 343 762 554 739 545 46 165 270 403 40 42 142
is_linear=0
shrinkage=0.01


Tree=33
num_leaves=25
num_cat=0
split_feature=0 0 0 0 14 0 9 0 9 8 17 9 16 0 11 1 9 0 9 16 3 0 3 7
split_gain=98013.1 24503.9 15127.4 7483.8 5029.83 4258.2 2339 1398.12 1073.44 942.717 835.732 754.262 673.885 517.34 506.838 469.919 435.18 390.169 318.419 250.205 200.193 173.63 162.544 102.891
threshold=16.625000000000004 36.542000000000009 10.458500000000003 23.041500000000003 0.52250000000000008 6.6250000000000009 2.411 12.375000000000002 0.59950000000000003 10.500000000000002 24.500000000000004 0.26750000000000007 0.68300000000000016 20.625000000000004 -0.8849999999999999 3.4800000000000004 1.8495000000000001 4.9585000000000008 1.0610000000000002 0.68300000000000016 1.6445000000000001 7.3750000000000009 0.70400000000000007 2.5000000000000004
decision_type=2 2 2 2 2 2 2 2 2 2 2 2 2 2 2 2 2 2 2 2 2 2 2 2
left_child=2 3 5 9 12 8 10 18 17 13 -5 22 -3 -2 -13 21 -11 -1 20 -17 -4 -7 -9 -10
right_child=1 4 7 6 -6 15 -8 11 23 16 -12 14 -14 -15 -16 19 -18 -19 -20 -21 -22 -23 -24 -25
leaf_value=-0.071992456035796168 0.038479775842916605 0.18918481286615133 -0.017294821823274509 0.092670212232956184 0.40101392973036992 -0.050758029611743229 0.2223948872089386 -0.016441592115443202 -0.027980684518814084 0.069648437680285655 0.12766540480966584 7.0886789141474536e-05 0.26318021583557127 0.065706151173303001 0.029683378226490635 -0.031154504153688076 0.12073211405958448 -0.05786309430724941 0.019347156755238151 -0.017136170831675242 0.009849642810722193 -0.035788034214461979 0.0041324343317925621 0.0040960113853216176
leaf_weight=398 263 32 288 135 21 98 20 48 20 81 138 74 20 95 264 295 21 384 30 224 30 370 192 20
leaf_count=398 263 32 288 135 21 98 20 48 20 81 138 74 20 95 264 295 21 384 30 224 30 370 192 20
internal_value=1.07281e-10 0.0954651 -0.0288315 0.0785065 0.270395 -0.0456579 0.118008 0.00403983 -0.0624697 0.053346 0.11036 0.0135742 0.217645 0.0457047 0.0232002 -0.0316565 0.0801657 -0.0650543 -0.011796 -0.0251042 -0.014734 -0.0389228 1.7629e-05 -0.0119423
internal_weight=3561 826 2735 753 73 1809 293 926 822 460 273 578 52 358 338 987 102 782 348 519 318 468 240 40
internal_count=3561 826 2735 753 73 1809 293 926 822 460 273 578 52 358 338 987 102 782 348 519 318 468 240 40
is_linear=0
shrinkage=0.01


Tree=34
num_leaves=29
num_cat=0
split_feature=0 0 0 1 0 0 0 0 8 8 9 11 9 9 8 8 3 16 16 9 0 9 1 7 5 9 4 0
split_gain=96093.7 25977.1 12584.5 5612.51 5494.62 2909.81 1793.59 1638.73 1280.13 1050.81 855.663 706.062 638.143 625.97 624.688 513.632 503.324 502.572 438.621 375.902 345.792 272.627 260.687 237.476 222.084 211.184 175.951 52.1435
threshold=15.625000000000002 30.708500000000004 8.3750000000000018 14.170000000000002 22.041500000000003 11.625000000000002 5.541500000000001 36.041500000000006 17.500000000000004 15.500000000000002 0.77100000000000013 1.0055000000000003 0.51200000000000012 0.26750000000000007 -1.4999999999999998 5.5000000000000009 1.3305000000000002 0.93300000000000016 0.68300000000000016 1.2080000000000002 6.6250000000000009 -0.015499999999999998 1.7030000000000001 6.5000000000000009 -10.499999999999998 1.7080000000000002 -0.20049999999999998 3.1250000000000004
decision_type=2 2 2 2 2 2 2 2 2 2 2 2 2 2 2 2 2 2 2 2 2 2 2 2 2 2 2 2
left_child=2 4 6 7 9 15 22 10 16 14 -3 -10 20 24 -2 21 -6 -15 -9 -17 -8 -4 27 -14 -7 -11 -24 -1
right_child=1 3 5 -5 8 13 12 18 11 25 -12 -13 23 17 -16 19 -18 -19 -20 -21 -22 -23 26 -25 -26 -27 -28 -29
leaf_value=-0.0834540685465638 0.024034902925462755 0.11335193440769657 -0.040130850997634408 0.34998586463928222 0.086143404381273658 0.026594164963989031 -0.057558748851819282 0.20175669631442511 0.1956991355419159 0.070786278160179364 0.19280751715535704 0.11267797924223399 -0.03195897153912837 0.011615183918910513 0.049174800909252143 -0.013838973964269662 0.1259094229732689 0.05071332585167241 0.2598821396827698 0.030645927573953357 -0.041545097881939656 -0.023721055356304616 -0.072263159198558025 -0.0022985703016028688 -0.007290773052494137 0.11002043229082357 -0.057273477633711711 -0.072590894077578169
leaf_weight=71 146 33 133 25 196 21 232 37 20 34 23 21 131 295 306 199 38 37 20 21 322 424 116 34 245 23 241 117
leaf_count=71 146 33 133 25 196 21 232 37 20 34 23 21 131 295 306 199 38 37 20 21 322 424 116 34 245 23 241 117
internal_value=6.64623e-11 0.0878852 -0.0307049 0.214402 0.0656157 -0.00976757 -0.0534808 0.184406 0.101632 0.0461568 0.145985 0.153176 -0.0431098 0.00681457 0.0410544 -0.0225296 0.0926011 0.0159725 0.222152 -0.00959269 -0.0482512 -0.0276394 -0.067163 -0.0258471 -0.00461565 0.0866176 -0.0621441 -0.0766935
internal_weight=3561 922 2639 138 784 1375 1264 113 275 509 56 41 719 598 452 777 234 332 57 220 554 557 545 165 266 57 357 188
internal_count=3561 922 2639 138 784 1375 1264 113 275 509 56 41 719 598 452 777 234 332 57 220 554 557 545 165 266 57 357 188
is_linear=0
shrinkage=0.01


Tree=35
num_leaves=28
num_cat=0
split_feature=0 0 0 0 13 0 3 15 0 9 8 9 1 14 9 11 16 1 9 0 9 16 0 3 4 9 7
split_gain=94183.3 23563.6 14537.9 5735.15 4346.1 4084.39 1677.16 1651.61 1341.64 1040.3 907.571 725.74 696.31 633.123 506.95 496.076 489.763 454.775 418.82 376.894 308.273 246.218 168.711 160.43 136.074 133.064 99.898
threshold=16.625000000000004 34.375000000000007 10.458500000000003 23.041500000000003 7.5000000000000009 6.6250000000000009 1.5015000000000003 1.0000000180025095e-35 12.375000000000002 0.59950000000000003 10.500000000000002 0.26750000000000007 11.495500000000002 0.58400000000000007 -0.046999999999999993 -0.66499999999999992 -1.0000000180025095e-35 3.4800000000000004 1.8495000000000001 4.8750000000000009 0.67300000000000015 0.68300000000000016 7.3750000000000009 0.70400000000000007 0.60100000000000009 -0.022499999999999996 2.5000000000000004
decision_type=2 2 2 2 2 2 2 2 2 2 2 2 2 2 2 2 2 2 2 2 2 2 2 2 2 2 2
left_child=2 3 5 10 7 9 16 12 20 19 14 23 -3 -8 -2 -13 -5 22 -12 -1 25 -19 -7 -10 -22 -4 -11
right_child=1 4 8 6 -6 17 13 -9 11 26 18 15 -14 -15 -16 -17 -18 21 -20 -21 24 -23 -24 -25 -26 -27 -28
leaf_value=-0.070835102893955379 0.022969296552786012 0.27292920265197756 -0.028619510556260743 0.066671227808845671 0.36869429779052737 -0.04985982003260632 0.12964235557162243 0.13449619396279255 -0.016348027264466509 -0.027285193338990214 0.06829594014235485 0.0027846298227598384 0.20249334909021854 0.20467927336692809 0.051287307110834408 0.030097241570686672 0.10614211432942813 -0.0306012513768875 0.1184102307614826 -0.056948184468338832 -0.014232253388122276 -0.016695052309493936 -0.035103428260020511 0.0040918234506777179 0.01266480143872961 -0.012620481615039437 0.0043214590996503831
leaf_weight=384 82 25 72 38 20 98 23 24 48 20 81 91 32 22 276 247 182 295 21 398 27 224 370 192 62 187 20
leaf_count=384 82 25 72 38 20 98 23 24 48 20 81 91 32 22 276 247 182 295 21 398 27 224 370 192 62 187 20
internal_value=2.14562e-11 0.0935814 -0.0282626 0.0736461 0.236681 -0.0447578 0.110702 0.204086 0.00396183 -0.061223 0.0522986 0.0133016 0.233386 0.166327 0.0448011 0.0227438 0.0993244 -0.0310452 0.0786136 -0.0637673 -0.0115508 -0.0245993 -0.0381934 3.85331e-06 0.00450502 -0.0170681 -0.0114819
internal_weight=3561 826 2735 725 101 1809 265 81 926 822 460 578 57 45 358 338 220 987 102 782 348 519 468 240 89 259 40
internal_count=3561 826 2735 725 101 1809 265 81 926 822 460 578 57 45 358 338 220 987 102 782 348 519 468 240 89 259 40
is_linear=0
shrinkage=0.01


Tree=36
num_leaves=29
num_cat=0
split_feature=0 0 0 1 0 0 0 0 8 9 9 11 9 9 9 16 9 3 16 8 0 9 14 7 0 15 2 9
split_gain=92339.2 24985.6 12096.7 5473.89 5276.48 2791.78 1721.16 1569.89 1233.52 1015.44 832.916 692.846 618.192 616.936 574.966 598.461 493.666 485.701 427.821 367.434 333.357 256.045 241.044 218.911 138.02 105.871 101.086 99.1341
threshold=15.625000000000002 30.708500000000004 8.3750000000000018 14.170000000000002 22.041500000000003 11.958500000000003 5.541500000000001 36.041500000000006 17.500000000000004 1.5855000000000004 0.77100000000000013 1.0055000000000003 -0.046999999999999993 0.49150000000000005 -0.12749999999999997 0.68300000000000016 0.0085000000000000023 1.3305000000000002 0.68300000000000016 2.5000000000000004 6.6250000000000009 0.19750000000000004 0.52850000000000008 6.5000000000000009 4.2085000000000008 0.68300000000000016 0.45350000000000007 0.46000000000000008
decision_type=2 2 2 2 2 2 2 2 2 2 2 2 2 2 2 2 2 2 2 2 2 2 2 2 2 2 2 2
left_child=2 4 6 7 9 16 21 10 17 12 -3 -10 -2 20 26 -16 25 -6 -9 -18 -8 24 -11 -15 -1 -4 -7 -23
right_child=1 3 5 -5 8 14 13 18 11 22 -12 -13 -14 23 15 -17 19 -19 -20 -21 -22 27 -24 -25 -26 -27 -28 -29
leaf_value=-0.076583691287685079 0.017427434060763528 0.11080507881826523 -0.03227485719895521 0.34412921266555785 0.084396382347889709 -0.0083033175472484299 -0.056850481326073669 0.19740883827209474 0.19232513141632079 0.065076124128841215 0.18919742890026262 0.11008465585254489 0.046505133424740372 -0.031704639261457286 0.002705010374978421 0.026105185308990701 -0.024992441916989971 0.12346002320317846 0.25481423091888428 -0.0098690706956302554 -0.04093412562477447 -0.059166662061600379 0.11103265602588654 -0.0040958040869898266 -0.064464808877225943 -0.052563545670240151 -0.032862475656327751 -0.039122546469171841
leaf_weight=185 91 33 151 25 196 83 226 37 20 21 23 21 372 142 252 193 307 38 20 337 315 139 25 36 191 31 21 30
leaf_count=185 91 33 151 25 196 83 226 37 20 21 23 21 372 142 252 193 307 38 20 337 315 139 25 36 191 31 21 30
internal_value=2.55022e-11 0.0861512 -0.0300991 0.21023 0.0643108 -0.00957153 -0.0524292 0.180606 0.0996053 0.0452421 0.143002 0.150202 0.0407901 -0.0422698 0.00790651 0.0128539 -0.0211883 0.0907401 0.217551 -0.0170785 -0.0475831 -0.0658323 0.0900525 -0.0261208 -0.0704276 -0.0357306 -0.0132624 -0.0556085
internal_weight=3561 922 2639 138 784 1375 1264 113 275 509 56 41 463 719 549 445 826 234 57 644 541 545 46 178 376 182 104 169
internal_count=3561 922 2639 138 784 1375 1264 113 275 509 56 41 463 719 549 445 826 234 57 644 541 545 46 178 376 182 104 169
is_linear=0
shrinkage=0.01


Tree=37
num_leaves=24
num_cat=0
split_feature=0 0 0 0 14 0 9 0 9 8 17 9 16 0 1 11 9 0 9 16 0 3 3
split_gain=90504.4 22716.3 13975.8 6885.74 4864.08 3917.93 2225.01 1283.61 915.478 877.701 806.136 703.266 636.936 494.107 490.706 485.795 402.966 339.044 300.328 241.395 202.497 192.743 156.298
threshold=16.625000000000004 36.542000000000009 10.458500000000003 23.041500000000003 0.52250000000000008 6.541500000000001 2.411 12.375000000000002 0.59950000000000003 10.500000000000002 24.500000000000004 0.26750000000000007 0.68300000000000016 20.625000000000004 3.4800000000000004 -0.8849999999999999 1.8495000000000001 4.8750000000000009 1.0610000000000002 0.68300000000000016 7.3750000000000009 1.6445000000000001 0.70400000000000007
decision_type=2 2 2 2 2 2 2 2 2 2 2 2 2 2 2 2 2 2 2 2 2 2 2
left_child=2 3 5 9 12 8 10 18 17 13 -5 22 -3 -2 20 -13 -11 -1 21 -16 -7 -4 -9
right_child=1 4 7 6 -6 14 -8 11 -10 16 -12 15 -14 -15 19 -17 -18 -19 -20 -21 -22 -23 -24
leaf_value=-0.069445267203263938 0.036839053635928119 0.18062141552567482 -0.016649328584583904 0.088464433456874561 0.38861277534848171 -0.049438326257367091 0.21510896348953246 -0.01620439869797944 -0.010534103810787201 0.067030804628207361 0.12283439626242372 -0.00032340919347228228 0.25255964183807372 0.063447055355498674 -0.030092271080981926 0.028667840347766427 0.11618741533585958 -0.056068188737340784 0.01896222741405169 -0.016431781241441505 -0.034441846525850334 0.009985248131056626 0.0039704731023327139
leaf_weight=384 263 32 288 135 21 119 20 48 35 81 138 74 20 95 299 264 21 374 30 228 370 30 192
leaf_count=384 263 32 288 135 21 119 20 48 35 81 138 74 20 95 299 264 21 374 30 228 370 30 192
internal_value=2.67484e-12 0.0917355 -0.0277051 0.0754072 0.260164 -0.0438783 0.113297 0.00389019 -0.0605362 0.051273 0.105838 0.0130258 0.20829 0.0438998 -0.0308767 0.0223206 0.0771513 -0.062845 -0.0112833 -0.0241822 -0.0380913 -0.0141366 -6.45013e-05
internal_weight=3561 826 2735 753 73 1809 293 926 793 460 273 578 52 358 1016 338 102 758 348 527 489 318 240
internal_count=3561 826 2735 753 73 1809 293 926 793 460 273 578 52 358 1016 338 102 758 348 527 489 318 240
is_linear=0
shrinkage=0.01


Tree=38
num_leaves=28
num_cat=0
split_feature=0 0 0 1 0 0 0 0 8 8 5 11 9 8 9 16 9 3 3 9 0 9 10 7 9 0 9
split_gain=88731.6 24035.2 11628.1 5293.64 5058.95 2681.67 1651.65 1501.05 1199.35 983.455 784.809 676.184 613.533 600.689 596.653 568.748 525.571 475.171 334.83 328.962 318.592 249.464 230.106 214.367 194.297 133.714 95.218
threshold=15.625000000000002 30.708500000000004 8.3750000000000018 14.170000000000002 22.041500000000003 11.541500000000001 5.541500000000001 37.791500000000006 17.500000000000004 15.500000000000002 -7.4999999999999991 1.0055000000000003 0.26750000000000007 -1.4999999999999998 0.49150000000000005 0.68300000000000016 1.2080000000000002 1.3305000000000002 1.0255000000000003 -0.015499999999999998 6.6250000000000009 0.19750000000000004 0.023500000000000004 6.5000000000000009 1.7080000000000002 4.2085000000000008 0.46000000000000008
decision_type=2 2 2 2 2 2 2 2 2 2 2 2 2 2 2 2 2 2 2 2 2 2 2 2 2 2 2
left_child=2 4 6 7 9 16 21 10 17 13 -3 -10 22 -2 20 -14 19 -6 -9 -4 -8 25 -7 -16 -11 -1 -23
right_child=1 3 5 -5 8 12 14 18 11 24 -12 -13 15 -15 23 -17 -18 -19 -20 -21 -22 26 -24 -25 -26 -27 -28
leaf_value=-0.075123400958808692 0.022733480897668291 0.19502628913657233 -0.03632075830813377 0.33782374839782714 0.082573662400055592 0.0047111523960988357 -0.055731508227444326 0.18919357693195346 0.1890943659543991 0.06831642091274262 0.12187596390193159 0.10784878549121675 0.0045660577092355896 0.047385751239078885 -0.031090720228745906 0.030857419695732368 0.025170703556226647 0.12121152824183044 0.24317748705546063 -0.019932871976841803 -0.040171623838148894 -0.057923850200587899 -0.013784753404740063 -0.0037699401461415822 0.10594931487155998 -0.063195044869527775 -0.038279629901051521
leaf_weight=185 146 22 155 25 196 127 226 20 20 34 44 21 206 306 142 137 23 38 27 584 315 139 143 36 23 191 30
leaf_count=185 146 22 155 25 196 127 226 20 20 34 44 21 206 306 142 137 23 38 27 584 315 139 143 36 23 191 30
internal_value=-1.01674e-10 0.0844515 -0.0295052 0.206148 0.0630305 -0.00937921 -0.0513986 0.177016 0.0975898 0.044359 0.146259 0.147481 0.00619114 0.0394228 -0.0414464 0.0150673 -0.021905 0.0888482 0.220206 -0.0233701 -0.0466717 -0.0645282 -0.00508483 -0.0255652 0.0835016 -0.069064 -0.0544367
internal_weight=3561 922 2639 138 784 1375 1264 113 275 509 66 41 613 452 719 343 762 234 47 739 541 545 270 178 57 376 169
internal_count=3561 922 2639 138 784 1375 1264 113 275 509 66 41 613 452 719 343 762 234 47 739 541 545 270 178 57 376 169
is_linear=0
shrinkage=0.01


Tree=39
num_leaves=27
num_cat=0
split_feature=0 0 0 0 17 0 0 3 10 9 8 13 14 9 9 1 3 10 9 0 16 0 0 13 8 16
